tree
version=v4
num_class=1
num_tree_per_iteration=1
label_index=0
max_feature_idx=238
objective=binary sigmoid:1
feature_names=Column_0 Column_1 Column_2 Column_3 Column_4 Column_5 Column_6 Column_7 Column_8 Column_9 Column_10 Column_11 Column_12 Column_13 Column_14 Column_15 Column_16 Column_17 Column_18 Column_19 Column_20 Column_21 Column_22 Column_23 Column_24 Column_25 Column_26 Column_27 Column_28 Column_29 Column_30 Column_31 Column_32 Column_33 Column_34 Column_35 Column_36 Column_37 Column_38 Column_39 Column_40 Column_41 Column_42 Column_43 Column_44 Column_45 Column_46 Column_47 Column_48 Column_49 Column_50 Column_51 Column_52 Column_53 Column_54 Column_55 Column_56 Column_57 Column_58 Column_59 Column_60 Column_61 Column_62 Column_63 Column_64 Column_65 Column_66 Column_67 Column_68 Column_69 Column_70 Column_71 Column_72 Column_73 Column_74 Column_75 Column_76 Column_77 Column_78 Column_79 Column_80 Column_81 Column_82 Column_83 Column_84 Column_85 Column_86 Column_87 Column_88 Column_89 Column_90 Column_91 Column_92 Column_93 Column_94 Column_95 Column_96 Column_97 Column_98 Column_99 Column_100 Column_101 Column_102 Column_103 Column_104 Column_105 Column_106 Column_107 Column_108 Column_109 Column_110 Column_111 Column_112 Column_113 Column_114 Column_115 Column_116 Column_117 Column_118 Column_119 Column_120 Column_121 Column_122 Column_123 Column_124 Column_125 Column_126 Column_127 Column_128 Column_129 Column_130 Column_131 Column_132 Column_133 Column_134 Column_135 Column_136 Column_137 Column_138 Column_139 Column_140 Column_141 Column_142 Column_143 Column_144 Column_145 Column_146 Column_147 Column_148 Column_149 Column_150 Column_151 Column_152 Column_153 Column_154 Column_155 Column_156 Column_157 Column_158 Column_159 Column_160 Column_161 Column_162 Column_163 Column_164 Column_165 Column_166 Column_167 Column_168 Column_169 Column_170 Column_171 Column_172 Column_173 Column_174 Column_175 Column_176 Column_177 Column_178 Column_179 Column_180 Column_181 Column_182 Column_183 Column_184 Column_185 Column_186 Column_187 Column_188 Column_189 Column_190 Column_191 Column_192 Column_193 Column_194 Column_195 Column_196 Column_197 Column_198 Column_199 Column_200 Column_201 Column_202 Column_203 Column_204 Column_205 Column_206 Column_207 Column_208 Column_209 Column_210 Column_211 Column_212 Column_213 Column_214 Column_215 Column_216 Column_217 Column_218 Column_219 Column_220 Column_221 Column_222 Column_223 Column_224 Column_225 Column_226 Column_227 Column_228 Column_229 Column_230 Column_231 Column_232 Column_233 Column_234 Column_235 Column_236 Column_237 Column_238
feature_infos=[-0.24008236290362861:20.182673463688349] [-0.341299983262562:15.610730729772806] [-0.6702046522967734:5.4362251718101433] [-0.15179739924624158:12.473645540763235] [-0.17405790709456365:10.024265569815743] [-0.10097257053659349:31.574087207945464] [-0.098416220805848928:34.194825109281993] [-0.13207524633699691:29.850688753303473] [-0.03947930461034499:58.568268924817701] [-0.033191223409794038:81.146613590364169] [-0.031642943493072485:75.142751463899131] [-0.047244759906040101:67.276969676836657] [-0.17553258042225883:44.461519390425543] [-0.21116777683802954:11.804339762302428] [-0.030577616797083006:66.433733073326565] [-0.030452217866565559:72.931822031944293] [-70.600534732543764:34.278669806236564] [-0.078140868510884698:21.644925544534207] [-0.063432582327654044:44.271812640341388] [-0.013243897387491608:81.653587139101191] [-0.051810212961049228:55.469582256058366] [-0.093256117847306155:55.680187125585455] [-0.25318631402448316:43.924426924019428] [-0.026572952699348333:74.601315538358278] [-0.059521266041942945:58.43051977552134] [-0.043396231477489687:43.989236325408221] [-0.012698051411936501:81.680539973888401] [-0.012623772150848429:81.684202920259438] [-0.01239924407194775:81.685094680289907] [-0.19547170830193153:34.739800179692836] [-0.25860769492202762:42.941375191998823] [0:14] none none none none [0:17] [0:2] [0:1] [0:1] [0:1] [0:1] [0:1] [0:1] [0:1] [0:236] [0:359] [-0.11883993446826935:0.13531765341758728] [-0.090367846190929413:0.10532326996326447] [-0.096895962953567505:0.18793553113937378] [-0.13367575407028198:0.17741592228412628] [-0.10082792490720749:0.20240382850170135] [-0.10619711875915527:0.27028065919876099] [-0.09726308286190033:0.16756154596805573] [-0.14565183222293854:0.16473260521888733] [-0.10114218294620514:0.22404153645038605] [-0.088225103914737701:0.25957149267196655] [-0.1260303258895874:0.16763259470462799] [-0.1094566285610199:0.18432359397411346] [-0.094828292727470398:0.20374560356140137] [-0.057136230170726776:0.13428130745887756] [-0.12629963457584381:0.12272677570581436] [-0.073676057159900665:0.11579658091068268] [-0.12258273363113403:0.19919592142105103] [-0.12891180813312531:0.18890182673931122] [-0.10204339772462845:0.16493229568004608] [-0.10747246444225311:0.17260526120662689] [-0.11452497541904449:0.19466616213321686] [-0.13886113464832306:0.25570398569107056] [-0.075433552265167236:0.19143728911876678] [-0.17280040681362152:0.24928617477416992] [-0.097730681300163269:0.17289744317531586] [-0.12519040703773499:0.25551086664199829] [-0.10223397612571716:0.15142478048801422] [-0.07675885409116745:0.1010143980383873] [-0.13743586838245392:0.15192720293998718] [-0.086685650050640106:0.1717851310968399] [-0.12469957023859024:0.16402466595172882] [-0.090975537896156311:0.12230708450078964] [-0.14071893692016602:0.1598694771528244] [-0.13656027615070343:0.18324124813079834] [-0.11486741155385971:0.1576598733663559] [-0.10683340579271317:0.26196256279945374] [-0.12638857960700989:0.14900007843971252] [-0.14719054102897644:0.2607254683971405] [-0.089873097836971283:0.15675517916679382] [-0.10741136223077774:0.22840286791324615] [-0.12928435206413269:0.25034999847412109] [-0.13957411050796509:0.2553633451461792] [-0.082073204219341278:0.22616930305957794] [-0.10418174415826797:0.15271182358264923] [-0.12364622950553894:0.25919613242149353] [-0.12951591610908508:0.20324073731899261] [-0.13397590816020966:0.2157868891954422] [-0.14943960309028625:0.25159731507301331] [-0.11771260946989059:0.19119332730770111] [-0.10945349186658859:0.17965966463088989] [-0.11764010041952133:0.16393303871154785] [-0.10980875790119171:0.18284925818443298] [-0.11882152408361435:0.14701564610004425] [-0.09433332085609436:0.15467482805252075] [-0.06265704333782196:0.11985097080469131] [-0.10435136407613754:0.18921385705471039] [-0.14915095269680023:0.12062635272741318] [-0.048416562378406525:0.13315460085868835] [-0.053013060241937637:0.13285970687866211] [-0.10888237506151199:0.21534296870231628] [-0.13296085596084595:0.12420486658811569] [-0.054152753204107285:0.099161095917224884] [-0.079396024346351624:0.21492822468280792] [-0.10500101745128632:0.12025439739227295] [-0.078456692397594452:0.16762568056583405] [-0.13572713732719421:0.13919559121131897] [-0.11013787239789963:0.19182196259498596] [-0.044896345585584641:0.11217927187681198] [-0.096302218735218048:0.20072151720523834] [-0.10410942882299423:0.11691867560148239] [-0.11013547331094742:0.17883004248142242] [-0.078882582485675812:0.14559648931026459] [-0.083259396255016327:0.14409908652305603] [-0.15535628795623779:0.23644593358039856] [-0.13215909898281097:0.29527664184570312] [-0.11232317984104156:0.1320311427116394] [-0.1004483625292778:0.23402543365955353] [-0.14089229702949524:0.14412830770015717] [-0.10691437125205994:0.17572398483753204] [-0.090584233403205872:0.2009442001581192] [-0.11130382120609283:0.25038912892341614] [-0.09469585120677948:0.13378490507602692] [-0.13242170214653015:0.19147039949893951] [-0.059152670204639435:0.11798467487096786] [-0.11584580689668655:0.17809519171714783] [-0.094457603991031647:0.13626229763031006] [-0.12792101502418518:0.23703750967979431] [-0.16792723536491394:0.1551973968744278] [-0.10115105658769608:0.15823465585708618] [-0.10830416530370712:0.18675875663757324] [-0.086376428604125977:0.18945829570293427] [-0.045180302113294601:0.096568390727043152] [-0.12521624565124512:0.19203153252601624] [-0.1145084947347641:0.1111348569393158] [-0.075388208031654358:0.12127511948347092] [-0.081964209675788879:0.14344428479671478] [-0.081529118120670319:0.13551950454711914] [-0.092445485293865204:0.14886291325092316] [-0.07393202930688858:0.094501003623008728] [-0.12486904114484787:0.2469794750213623] [-0.094504356384277344:0.14479139447212219] [-0.081152819097042084:0.16228033602237701] [-0.092984475195407867:0.09666876494884491] [-0.064918316900730133:0.13381804525852203] [-0.043894775211811066:0.10791502892971039] [-0.11532042920589447:0.32209098339080811] [-0.14298981428146362:0.17432872951030731] [-0.143015056848526:0.23684994876384735] [-0.10664310306310654:0.21820773184299469] [-0.12525522708892822:0.15939943492412567] [-0.0909733846783638:0.19757398962974548] [-0.10838215798139572:0.13173794746398926] [-0.12976512312889099:0.15777035057544708] [-0.080294147133827209:0.14198283851146698] [-0.095703132450580597:0.1493438184261322] [-0.11854599416255951:0.12890347838401794] [-0.14320121705532074:0.24195858836174011] [-0.11087512224912643:0.14480668306350708] [-0.11019807308912277:0.15235842764377594] [-0.101579949259758:0.14910832047462463] [-0.073864191770553589:0.11495079845190048] [-0.093889869749546051:0.14812225103378296] [-0.069173842668533325:0.21085943281650543] [-0.15564489364624023:0.15820540487766266] [-0.1215331181883812:0.168566033244133] [-0.10890456289052963:0.243791863322258] [-0.1024729460477829:0.17191906273365021] [-0.044664870947599411:0.13092222809791565] [-0.045060157775878906:0.11663397401571274] [-0.088100709021091461:0.12582595646381378] [-0.075381867587566376:0.13549046218395233] [-0.08569759875535965:0.1450975090265274] [-0.087926164269447327:0.14819738268852234] [-0.11489766091108322:0.18438656628131866] [-0.13611972332000732:0.27511462569236755] [-0.14593017101287842:0.16421166062355042] [-0.10326634347438812:0.13541482388973236] [-0.17927663028240204:0.29214951395988464] [-0.10931050032377243:0.1586485356092453] [-0.079011730849742889:0.098163597285747528] [-0.076080530881881714:0.13237223029136658] [-0.094239577651023865:0.19415807723999023] [-0.097969844937324524:0.244371697306633] [-0.13535313308238983:0.15623161196708679] [-0.11978484690189362:0.11405051499605179] [-0.13087932765483856:0.28210097551345825] [-0.057489156723022461:0.12587431073188782] [-0.043530810624361038:0.15161861479282379] [-0.10859711468219757:0.19389672577381134] [-0.090479098260402679:0.16707102954387665] [-0.12670046091079712:0.18076695501804352] [-0.14665380120277405:0.18916052579879761] [-0.12390770763158798:0.20871232450008392] [-0.12296032905578613:0.18818262219429016] [-0.091487236320972443:0.14510712027549744] [-0.09905678778886795:0.16122026741504669] [-0.064491681754589081:0.15211324393749237] [-0.15144786238670349:0.19294281303882599] [-0.11324799060821533:0.13246093690395355] [-0.098116472363471985:0.12953436374664307] [-0.033476922661066055:0.11483507603406906] [-0.073736727237701416:0.15495556592941284] [-0.11991855502128601:0.26446989178657532] [-0.031823597848415375:0.21060638129711151] [-0.08153107762336731:0.19182099401950836] [-0.10465008020401001:0.15727274119853973] [-0.13380293548107147:0.15190865099430084] [-0.098778605461120605:0.12417851388454437] [-0.095021016895771027:0.15127864480018616] [-0.088816948235034943:0.095626689493656158] [-0.068994790315628052:0.11688438802957535] [-0.078838266432285309:0.18783660233020782] [-0.11348871141672134:0.20626191794872284] [-0.11491382122039795:0.2073780745267868] [-0.072837293148040771:0.070532605051994324] [-0.056824389845132828:0.12683098018169403] [-0.10108641535043716:0.17019158601760864] [-0.11698544025421143:0.1523902416229248] [-0.079794861376285553:0.17681427299976349] [-0.1630537360906601:0.22072021663188934] [-0.13459731638431549:0.28021007776260376] [-0.17168205976486206:0.21815715730190277] [-0.068800561130046844:0.11256816983222961] [-0.11447206884622574:0.20163062214851379] [-0.052964843809604645:0.12780463695526123] [-0.12633475661277771:0.14875788986682892] [-0.048541605472564697:0.097305856645107269] [-0.089439652860164642:0.12862017750740051] [-0.14906877279281616:0.18070535361766815] [-0.11681021004915237:0.19688603281974792] [-0.094081863760948181:0.16375486552715302] [-0.08007272332906723:0.14880654215812683]
tree_sizes=2555 3030 3480 3485 3477 3490 3488 3484 3486 3494 3503 3514 3511 3512 3502 3512 3511 3511 3502 3515 3513 3505 3507 3521 3501 3511 3483 3499 3522 3502 3521 3515 3513 3521 3491 3521 3498 3509 3526 3496 3512 3507 3521 3495 3524 3507 3506 3505 3492 3507 3503 3515 3501 3516 3509 3520 3498 3504 3505 3512 3513 3509 3506 3510 3487 3494 3504 3510 3507 3505 3525 3521 3536 3496 3516 3535 3517 3524 3499 3499 3518 3522 3516 3527 3514 3529 3544 3512 3527 3544 3550 3541 3552 3527 3533 3545 3543 3535 3536 3547 3557 3562 3538 3552 3567 3547 3536 3550 3531 3570 3568 3558 3546 3566 3569 3558 3546 3571 3569 3563 3567 3522 3575 3525 3519 3540 3524 3554 3535 3518 3526 3532 3570 3531 3549 3558 3583 3540 3555 3568 3556 3555 3547 3572 3565 3609 3537 3598 3546 3586 3552 3603 3602 3531 3603 3558 3545 3557 3561 3563 3620 3610 3571 3546 3623 3581 3564 3552 3560 3594 3575 3591 3578 3609 3582 3583 3587 3567 3574 3608 3620 3575 3580 3599 3621 3587 3621 3605 3598 3583 3614 3588 3590 3628 3605 3610 3618 3599 3595 3619 3622 3630 3632 3611 3616 3615 3616 3623 3630 3624 3620 3621 3612 3622 3610 3630 3633 3612 3644 3638 3642 3643 3630 3642 3643 3666 3638 3660 3630 3648 3672 3674 3660 3649 3663 3640 3677 3639 3673 3668 3641 3685 3678 3655 3673 3665 3692 3659 3681 3662 3667 3679 3677 3666 3683 3680 3681 3684 3694 3680 3676 3673 3694 3692 3695 3711 3683 3698 3713 3706 3702 3693 3708 3704 3711 3711 3714 3692 3728 3701 3714 3729 3721 3733 3715 3735 3744 3744 3714 3735 3738 3752 3736 3731 3747 3743 3750 3743

Tree=0
num_leaves=23
num_cat=0
split_feature=89 45 182 2 128 2 5 153 134 14 82 155 149 238 106 223 22 0 1 0 0 0
split_gain=12452.6 887.616 245.536 176.677 108.383 46.4424 61.2806 35.5209 23.4221 18.552 13.9181 2.54519 1.4098 1.38455 1.13316 0.988487 0.279024 1.81899e-12 1.81899e-12 2.27374e-13 7.10543e-15 7.10543e-15
threshold=-0.01222366141155362 1.5000000000000002 -0.060421554371714585 -0.25476327256900239 -0.029071253724396225 0.57252597997368049 -0.064542608795164963 -0.10527347400784491 -0.0051290455739945165 -0.030541107305208322 -0.056011034175753587 -0.012970453128218649 0.055551799014210708 0.1342221945524216 -0.047379607334733002 -0.026855160482227799 -0.11195353513048091 0.087796270440298349 -0.31815007764188646 2.1049669013386194 0.23601381498504773 -0.085626515243969789
decision_type=2 2 2 2 2 2 2 2 2 2 2 2 2 2 2 2 2 2 2 2 2 2
left_child=4 -2 3 7 -1 6 9 -3 -6 -5 -4 15 13 19 20 16 17 18 -10 -12 21 -7
right_child=1 2 10 5 8 14 -8 -9 11 -11 12 -13 -14 -15 -16 -17 -18 -19 -20 -21 -22 -23
leaf_value=-1.136443093595668 -1.0368955976835335 -1.0954606515694703 -1.2728736691374172 -1.2400275599299622 -1.073345047367313 -1.3239937278493774 -1.1417057806214399 -1.1999433286031211 -1.0335710199026356 -1.3239937278493774 -1.3239937278493774 -1.0480677815768571 -1.3033239362233828 -1.30412626106247 -1.3037330385625536 -1.042608531037909 -1.0384319958944266 -1.0335710199026356 -1.0335710199026356 -1.3239937278493774 -1.3239937278493774 -1.3239937278493774
leaf_weight=28.190352231264114 30.079007416963577 16.965685024857521 13.790068775415419 12.593449413776396 41.4843580275774 13.600864812731741 10.634878084063528 15.627600610256193 507.91691029071808 13.773027658462526 755.45056706666946 34.490461379289627 8.5263211429119092 8.8706468343734723 8.6984839886426908 33.194979757070541 30.858000501990318 32.768832921981812 140.7846155166626 12.051399201154707 8.7803051322698575 11.018422126770021
leaf_count=88 51 43 70 58 92 79 34 63 837 80 4388 64 47 49 48 59 53 54 232 70 51 64
internal_value=-1.17878 -1.30413 -1.31296 -1.24352 -1.04004 -1.28389 -1.24302 -1.14556 -1.03674 -1.28389 -1.32267 -1.03479 -1.32354 -1.32377 -1.31981 -1.03417 -1.03378 -1.03357 -1.03357 -1.32399 -1.32399 -1.32399
internal_weight=1790.15 940.461 910.382 111.693 849.689 79.0994 37.0014 32.5933 821.498 26.3665 798.689 780.014 784.899 776.373 42.0981 745.523 712.328 681.47 648.702 767.502 33.3996 24.6193
internal_count=6674 5195 5144 520 1479 414 172 106 1391 138 4624 1299 4554 4507 242 1235 1176 1123 1069 4458 194 143
is_linear=0
shrinkage=1


Tree=1
num_leaves=27
num_cat=0
split_feature=89 45 182 2 196 2 5 153 14 24 5 82 184 56 1 230 3 227 143 75 106 149 238 218 47 0
split_gain=9795.61 750.245 234.225 150.298 73.2235 43.5207 60.6667 26.5915 17.9529 13.815 19.2174 13.6289 1.44866 1.43775 1.20083 0.904224 0.396748 0.17608 0.104462 0.0110417 0.000112685 0.000103548 7.49926e-05 6.44773e-05 2.39664e-06 7.10543e-15
threshold=-0.01222366141155362 1.5000000000000002 -0.060421554371714585 -0.25476327256900239 0.036668499931693084 0.57252597997368049 -0.061374786035040749 -0.10527347400784491 -0.030541107305208322 -0.059520594693512147 -0.070878254315413405 -0.056011034175753587 0.11398022994399072 0.20973281562328341 0.31510737228522173 0.0055097148288041362 -0.14359086133523538 -0.048123700544238084 0.080901183187961592 0.088971637189388289 -0.05117856711149215 0.048402694985270507 0.12668799608945849 -0.011706639081239699 0.026693521998822693 0.042063506908093094
decision_type=2 2 2 2 2 2 2 2 2 2 2 2 2 2 2 2 2 2 2 2 2 2 2 2 2 2
left_child=4 -2 3 7 9 6 8 -3 -5 15 -11 -4 13 21 20 -1 17 18 19 -17 25 22 -13 -21 -25 -7
right_child=1 2 11 5 -6 14 -8 -9 -10 10 -12 12 -14 -15 -16 16 -18 -19 -20 23 -22 -23 -24 24 -26 -27
leaf_value=0.18319049804395515 0.18806037528971697 0.14279019402311008 -0.012505676635462837 0.01858130128807018 0.11554061619658269 -0.063303526759171544 0.11696340186345958 0.054989394759693881 -0.063442821232296873 0.13489346379651682 0.19230682786449071 -0.063303526759171544 -0.042000681305436799 -0.042548161549690204 -0.041987387672942217 0.19123357330853002 0.18535376883987675 0.19392893855394719 0.1879300815881898 0.19061045929816631 -0.063516458239683785 -0.063477300090944461 -0.063444791430474254 0.19056798019637886 0.19055431331007588 -0.063303526759171544
leaf_weight=45.696535721421242 33.760870367288589 18.506181374192238 13.689499914646147 12.73235774040222 35.799615368247032 15.769016966223715 10.59771980345249 16.148361802101135 14.012931287288668 27.88208857178688 30.538879096508026 721.88899774849415 8.2455058544874174 8.4356894344091398 8.2430632412433607 67.38163685798645 36.902716979384422 39.118512392044067 37.905669331550598 57.975003898143768 8.375514432787897 8.8630853593349439 9.5187611728906614 34.107848405838013 538.92892360687256 8.2994826138019544
leaf_count=74 51 43 70 58 98 95 30 63 84 65 46 4349 47 48 47 99 57 58 57 85 50 53 57 50 790 50
internal_value=0.0733669 -0.0432632 -0.0521044 0.0152274 0.185692 -0.0232551 0.0157221 0.101877 -0.0243944 0.188432 0.164906 -0.0619498 -0.062844 -0.0630735 -0.0590288 0.190034 0.190419 0.19066 0.190486 0.190625 -0.0633585 -0.0633074 -0.0633054 0.19056 0.190555 -0.0633035
internal_weight=1869.32 917.087 883.326 112.685 952.237 78.0301 37.343 34.6545 26.7453 916.438 58.421 770.642 756.952 748.707 40.6871 858.017 812.32 775.418 736.299 698.393 32.444 740.271 731.408 631.012 573.037 24.0685
internal_count=6674 5195 5144 520 1479 414 172 106 142 1381 111 4624 4554 4507 242 1270 1196 1139 1081 1024 195 4459 4406 925 840 145
is_linear=0
shrinkage=0.05


Tree=2
num_leaves=31
num_cat=0
split_feature=89 45 182 2 121 5 2 5 133 14 82 230 121 189 181 174 178 24 140 208 149 3 122 56 159 1 106 149 16 114
split_gain=8011.29 651.602 223.56 129.447 56.6364 48.2544 40.8156 51.8113 22.239 16.8989 13.3707 7.18344 3.45028 4.89093 1.48719 1.44606 1.22812 0.417024 0.125514 0.0159119 0.00555291 0.00378018 0.000796075 0.000427565 0.000135936 9.5072e-05 2.38288e-05 1.79829e-05 1.54354e-05 9.40455e-06
threshold=-0.01222366141155362 1.5000000000000002 -0.060421554371714585 -0.25476327256900239 0.021961507387459282 -0.077213899835661834 0.57252597997368049 -0.061374786035040749 0.12586171925067904 -0.030541107305208322 -0.056011034175753587 -0.037404417991638177 -0.018506002612411972 0.10786889865994455 0.055280346423387534 0.11230967566370965 0.077027730643749251 -0.059520086126933554 0.060661083087325103 -0.0012736431672237811 0.015466602053493263 -0.14485340562923635 0.045415353029966361 0.20589528977870944 0.061511782929301269 0.12443088019311226 -0.057383017614483826 0.042793503031134612 0.0055194541133846481 0.066982250660657897
decision_type=2 2 2 2 2 2 2 2 2 2 2 2 2 2 2 2 2 2 2 2 2 2 2 2 2 2 2 2 2 2
left_child=4 -2 3 8 11 -6 7 9 -3 -5 -4 -1 17 -14 15 23 25 18 -13 -20 -21 22 28 24 27 26 -8 29 -22 -12
right_child=1 2 10 6 5 -7 16 -9 -10 -11 14 12 13 -15 -16 -17 -18 -19 19 20 21 -23 -24 -25 -26 -27 -28 -29 -30 -31
leaf_value=0.14033569940032203 0.164118917482316 0.054352866928476608 -0.011966787284901756 0.017468732072029682 0.055763539817940425 0.15758206421998003 -0.062487474323119546 0.10471065805808322 0.13255535179764644 -0.062616956205044066 -0.062487470969065498 0.16332521066425598 0.14028711523110976 0.16758343858897215 -0.040543324833551823 -0.041667938260022908 -0.040612221545383055 0.17138026890787439 0.16519123835290114 0.16676131014614995 0.16616795862530065 0.16667372440038505 0.16636616308010088 -0.062817632068776816 -0.062650913722448451 -0.062723389486551775 -0.062593941452671206 -0.062561968543511731 0.1662012195601196 -0.06254142135155745
leaf_weight=29.268973469734192 36.667060703039169 18.908912748098373 13.593182593584059 12.862641632556914 22.541696280241013 24.053460955619812 15.190853402018549 11.228224098682402 17.509060323238373 13.500837862491609 673.03464908897877 39.801736995577812 31.681425616145134 34.045889928936958 7.9755811244249335 8.4314576089382154 7.9885582625865927 38.596585631370544 37.236651957035065 49.576952159404755 590.94615799188614 42.190161287784576 56.312883853912354 10.230919554829596 13.213431313633917 8.0842954218387586 8.0354407280683535 8.34422419965267 37.068928241729736 8.1758505254983884
leaf_count=54 51 68 70 58 72 41 95 30 38 84 4209 56 56 49 47 50 47 53 51 67 797 57 76 63 82 50 50 52 50 51
internal_value=0.0674024 -0.0422853 -0.0511235 0.0142971 0.162192 0.108325 -0.0224824 0.0147646 0.0919511 -0.0235435 -0.0611003 0.164736 0.165482 0.154426 -0.0620159 -0.0622533 -0.0581111 0.166297 0.166067 0.166201 0.166249 0.166214 0.166186 -0.0624967 -0.0624921 -0.0625757 -0.0625243 -0.062489 0.16617 -0.0624881
internal_weight=1926.3 892.975 856.308 113.309 1033.32 46.5952 76.8909 37.5917 36.418 26.3635 742.999 986.726 957.457 65.7273 729.406 721.431 39.2991 891.73 853.133 813.332 776.095 726.518 684.328 712.999 702.768 31.3106 23.2263 689.555 628.015 681.21
internal_count=6674 5195 5144 520 1479 113 414 172 106 142 4624 1366 1312 105 4554 4507 242 1207 1154 1098 1047 980 923 4457 4394 195 145 4312 847 4260
is_linear=0
shrinkage=0.05


Tree=3
num_leaves=31
num_cat=0
split_feature=89 45 182 2 5 9 196 26 135 24 5 202 238 74 124 230 3 121 113 133 82 134 122 159 1 86 238 175 154 103
split_gain=6729.36 576.072 213.511 113.894 89.2452 89.3821 46.2637 13.428 11.3928 9.18367 12.8808 4.90728 1.49485 1.24855 0.912356 0.532326 0.264093 0.34092 0.067589 0.0333147 0.00954926 0.0023603 0.000264998 0.000211457 0.000136453 8.9188e-05 8.90494e-05 3.53007e-05 2.22723e-05 1.25091e-05
threshold=-0.01222366141155362 1.5000000000000002 -0.060421554371714585 0.57252597997368049 -0.029696558433798575 -0.032941545679654669 0.036668499931693084 -0.012289993688000125 -0.014275375753641127 -0.059520594693512147 -0.070878254315413405 -0.023754638619720932 0.1342221945524216 0.029091742821037773 -0.10444013029336928 0.0055097148288041362 -0.14359086133523538 -0.0038072359748184677 0.067020803689956679 0.043194003403186805 -0.054388947784900658 0.036310149356722839 0.045415353029966361 0.079161342233419432 0.16033739666052557 0.067261364310979857 0.11062959954142572 0.018862520344555381 -0.098469067364931093 0.092654194682836546
decision_type=2 2 2 2 2 2 2 2 2 2 2 2 2 2 2 2 2 2 2 2 2 2 2 2 2 2 2 2 2 2
left_child=6 -2 3 4 5 -3 9 11 14 15 -11 -4 20 24 -7 -1 17 18 19 -17 -13 -21 29 25 28 26 -22 -28 -5 -23
right_child=1 2 7 13 -6 8 -8 -9 -10 10 -12 12 -14 -15 -16 16 -18 -19 -20 21 23 22 -24 -25 -26 -27 27 -29 -30 -31
leaf_value=0.14324913406009815 0.14659198740386339 0.082895406870129473 -0.025390405772164601 -0.06173621836082413 0.16581322726311243 -0.044821957810791381 0.092105062447880984 0.0045661395270856784 0.0087703874580692381 0.10575691029725454 0.14972590952873563 -0.063266367882162722 -0.039946183158667305 -0.03934732940468022 -0.065837609661979435 0.14985518758916747 0.1445681598837866 0.15309576676582815 0.14639752652122123 0.1487697507881369 -0.06173269081602404 0.14840481235473288 0.1485083678662476 -0.061985343783355989 -0.062014024378746119 -0.061894022807437332 -0.061777405770919738 -0.061925444223851822 -0.061840580984101418 0.14838261976812483
leaf_weight=52.584801182150841 38.933657288551331 31.503225326538082 9.528833940625189 14.010602474212648 13.428420290350912 8.7837921530008334 39.928258657455444 7.8888435661792746 9.4527871161699348 31.51514632999897 35.329652458429337 10.415959805250166 7.9411846697330466 7.7559736967086783 12.533238828182219 42.316946864128113 42.50375671684742 40.303570330142975 40.544012784957886 44.043056964874268 646.21764898300171 70.869707405567169 46.443081736564636 8.7328562587499601 8.1213512867689115 9.0031550824642164 8.0231482237577456 8.0848295986652357 8.0494038462638873 610.31187689304352
leaf_count=74 51 95 55 91 20 49 98 42 43 65 46 63 48 47 71 54 57 52 53 56 4198 90 59 56 52 58 52 52 52 775
internal_value=0.0626022 -0.0413766 -0.0501994 0.0134687 0.0489042 0.0236942 0.144937 -0.0603067 -0.036918 0.146933 0.128996 -0.0610296 -0.0615158 -0.0572406 -0.057178 0.148144 0.148419 0.148602 0.14839 0.148489 -0.0617639 0.148414 0.148393 -0.0617409 -0.0618388 -0.0617377 -0.0617356 -0.0618517 -0.0617743 0.148385
internal_weight=1965.1 868.409 829.475 113.639 75.7015 62.273 1096.69 715.836 30.7698 1056.77 66.8448 707.948 698.419 37.9373 21.317 989.921 937.336 894.832 854.529 813.985 690.478 771.668 727.625 680.062 30.1814 671.329 662.326 16.108 22.06 681.182
internal_count=6674 5195 5144 520 278 258 1479 4624 163 1381 111 4582 4527 242 120 1270 1196 1139 1087 1034 4479 980 924 4416 195 4360 4302 104 143 865
is_linear=0
shrinkage=0.05


Tree=4
num_leaves=31
num_cat=0
split_feature=89 45 182 2 5 9 17 5 79 230 202 124 215 1 167 172 5 120 200 2 210 3 82 19 223 176 199 159 122 12
split_gain=5764.19 515.636 203.987 103.093 75.824 94.82 40.418 57.855 13.7017 5.71372 5.24804 3.9567 2.49244 1.28613 0.710464 0.686403 1.43311 0.13766 0.0247629 0.0240393 0.0218686 0.0112403 0.00590509 0.000826096 0.000811055 0.000354035 0.000267696 0.000179306 0.000115207 8.07351e-05
threshold=-0.01222366141155362 1.5000000000000002 -0.060421554371714585 0.57252597997368049 -0.051871317754668099 -0.033019057800124867 -0.068366466065258952 -0.061374786035040749 -0.084701769053935991 -0.037404417991638177 -0.023754638619720932 -0.10513439401984213 0.058714751154184348 0.31510737228522173 0.033618971705436713 0.13949199765920642 -0.080381722595786062 0.043559448793530471 -0.0074883785564452401 -0.068555237826211535 0.0028390588704496626 -0.14485340562923635 -0.05254723317921161 -0.013243575467201859 -0.059387108311057084 0.007800761843100191 -0.020633195526897904 0.072132166475057616 0.046196047216653831 -0.16910192121155262
decision_type=2 2 2 2 2 2 2 2 2 2 2 2 2 2 2 2 2 2 2 2 2 2 2 2 2 2 2 2 2 2
left_child=6 -2 3 4 5 -3 9 -8 -4 -1 -10 -7 -11 25 -14 17 -17 18 20 -13 -16 24 -12 27 28 -5 -25 -24 -22 -28
right_child=1 2 8 13 -6 11 7 -9 10 12 22 19 14 -15 15 16 -18 -19 -20 -21 21 -23 23 26 -26 -27 29 -29 -30 -31
leaf_value=0.11349281253910158 0.13318029715447266 0.078671172195037206 -0.0096653648884955298 -0.06106532109972921 0.12575150372008209 -0.023750592286201019 0.032865129676481392 0.13585338670466438 -0.022235398837266912 0.12031633188041024 -0.0623699497667407 -0.066417815342636202 0.14152976351794933 -0.037955116888871453 0.13372375755649332 0.12288406156164211 0.13609102082549862 0.1377238974874592 0.13608122929073793 -0.062828568214618616 0.13481705050406245 0.13566342905143411 -0.061032431918330105 -0.061119834665504948 0.13503910310000425 -0.061457708069180508 -0.061303621375536493 -0.061243887701145396 0.13490258368488803 -0.061517730205157828
leaf_weight=33.50458750128746 40.662659496068954 28.52450256049633 13.489115655422209 21.215828061103824 21.296576157212257 8.6978718042373675 24.594956323504448 30.605910941958427 8.8168816119432432 30.233218804001808 8.5580807328224164 9.1116987168788945 38.682028606534004 7.5033533573150626 42.989663645625114 36.675072550773621 46.690415978431702 44.81857705116272 40.960387766361237 9.5591908395290339 643.9513623714447 43.473635613918304 618.41249588131905 11.754546999931337 46.023903787136078 7.8850193172693244 7.6664132475852993 10.190444141626356 41.932208597660065 10.342680916190146
leaf_count=59 51 82 77 143 39 47 74 41 51 46 54 50 49 47 53 52 57 55 50 60 783 53 4176 79 56 52 51 68 51 68
internal_value=0.058643 -0.0405267 -0.0493227 0.012697 0.0454695 0.0148803 0.131707 0.0899666 -0.0595623 0.133821 -0.0605584 -0.0516044 0.134466 -0.0564126 0.134882 0.134622 0.130281 0.135022 0.134881 -0.0645802 0.134821 0.134882 -0.061065 -0.061048 0.134836 -0.0611716 -0.0613054 -0.0610359 0.134822 -0.0614266
internal_weight=1988.82 843.687 803.025 113.794 77.1898 55.8933 1145.14 55.2009 689.231 1089.94 675.742 27.3688 1056.43 36.6042 1026.2 987.515 83.3655 904.15 859.331 18.6709 818.371 775.381 666.925 658.367 731.907 29.1008 29.7636 628.603 685.884 18.0091
internal_count=6674 5195 5144 520 278 239 1479 115 4624 1364 4547 157 1305 242 1259 1210 109 1101 1046 110 996 943 4496 4442 890 195 198 4244 834 119
is_linear=0
shrinkage=0.05


Tree=5
num_leaves=31
num_cat=0
split_feature=89 45 182 2 5 9 121 5 82 194 85 213 66 169 1 230 202 150 25 149 131 2 3 28 110 1 202 194 199 238
split_gain=5010.89 465.771 194.907 93.7009 63.9523 84.8199 37.4362 31.0128 13.6194 5.18347 6.42254 1.60685 1.53679 1.32363 1.13271 0.916425 0.419619 0.189721 0.0906233 0.0209541 0.0213139 0.016066 0.00199243 0.00182171 0.000428203 0.000365593 0.000336938 0.000297364 0.000164168 0.000115667
threshold=-0.01222366141155362 1.5000000000000002 -0.060421554371714585 0.57252597997368049 -0.051871317754668099 -0.032961749121331853 0.021961507387459282 -0.074046077075537606 -0.056011034175753587 -0.0064164346549659959 -0.018755293451249596 0.09565973281860353 0.15509418398141864 0.035148970782756812 1.0000000180025095e-35 -0.034796582534909241 0.028565849177539352 0.088932987302541747 -0.043395095458955014 0.016021074727177623 0.053129779174923904 -0.031407104946004134 -0.14611594992323729 -0.012398583442536177 -0.024976696819066998 0.18063496535300125 -0.016801425255835053 -0.01446413993835449 -0.019331793300807473 0.032113654538989074
decision_type=2 2 2 2 2 2 2 2 2 2 2 2 2 2 2 2 2 2 2 2 2 2 2 2 2 2 2 2 2 2
left_child=6 -2 3 4 5 -3 9 -8 -4 15 -11 12 23 25 21 -1 -17 18 19 -18 22 -7 27 26 -25 29 -10 -21 -26 -5
right_child=1 2 8 13 -6 14 7 -9 11 10 -12 -13 -14 -15 -16 16 17 -19 -20 20 -22 -23 -24 24 28 -27 -28 -29 -30 -31
leaf_value=0.11595158146716106 0.12257630739696726 0.067926118186224127 -0.0079764511531354564 -0.060635719414093403 0.11422351191208811 -0.065070134671292759 0.045458960906333452 0.12267050927555478 -0.060715806996938737 0.12586272647187677 0.095917124402485898 -0.036428505379499779 -0.038034654224822551 -0.036732101000944144 -0.040545211646779378 0.12905809651825723 0.12502723986981998 0.12166057173534024 0.1264161841957151 0.12412349769092074 0.12300675164687468 -0.061943061780537337 0.12443643364158319 -0.061038792189828987 -0.060493393577351853 -0.060883225899235144 -0.06038282623390643 0.12425318403339521 -0.060776161869460478 -0.060387057013135084
leaf_weight=33.980418935418129 41.935376733541489 31.717520013451576 12.89302486181259 7.2290359735488954 22.246978268027306 8.6760826855897939 29.075690343976021 23.529778510332108 7.6951939761638632 34.115650966763496 37.682585224509239 7.2276562601327887 7.7703259438276282 7.3443466275930396 7.8839892297983161 44.293639957904816 65.131623864173889 74.685029476881027 47.175819337368011 642.70974099636078 42.62932276725769 7.8002088516950616 58.456929504871368 10.509988933801653 9.4579949229955691 7.4840237200260153 596.43445992469788 47.466215133666992 11.224763348698614 13.244871482253073
leaf_count=48 51 91 70 50 39 50 80 33 53 44 63 47 51 48 47 53 77 91 56 758 51 51 69 71 66 51 4189 56 77 93
internal_value=0.0553196 -0.0397352 -0.0484971 0.0120096 0.0424922 0.0140353 0.121224 0.0799947 -0.0588636 0.123146 0.110146 -0.0598725 -0.060136 -0.0556219 -0.0561316 0.12403 0.124298 0.124083 0.124283 0.124165 0.124094 -0.0635897 0.124156 -0.0604063 -0.0607789 -0.0605842 -0.0603871 0.124132 -0.0606469 -0.0604749
internal_weight=1999.71 818.776 776.84 113.627 78.3248 56.0778 1180.93 52.6055 663.213 1128.33 71.7982 650.32 643.093 35.3023 24.3603 1056.53 1022.55 978.255 903.57 856.394 791.262 16.4763 748.633 635.322 31.1927 27.9579 604.13 690.176 20.6828 20.4739
internal_count=6674 5195 5144 520 278 239 1479 113 4624 1366 107 4554 4507 242 148 1259 1211 1158 1067 1011 934 101 883 4456 214 194 4242 814 143 143
is_linear=0
shrinkage=0.05


Tree=6
num_leaves=31
num_cat=0
split_feature=89 45 182 2 5 9 196 79 135 24 5 221 122 63 45 170 63 121 194 82 52 233 19 6 3 149 1 213 202 122
split_gain=4406.88 423.648 186.279 85.4583 56.2658 62.6538 34.5887 13.7574 10.5799 6.56969 9.15779 5.52707 1.36184 0.87481 0.464812 4.48563 0.644124 0.0760265 0.0171967 0.0152598 0.010029 0.00191965 0.000967546 0.000383696 0.000258941 0.000228642 0.000188287 0.000173464 0.000137233 0.000130824
threshold=-0.01222366141155362 1.5000000000000002 -0.060421554371714585 0.57252597997368049 -0.029696558433798575 -0.032941545679654669 0.036668499931693084 -0.084701769053935991 -0.014275375753641127 -0.059520594693512147 -0.070878254315413405 -0.033032009378075593 0.014720974490046503 -0.10899247229099272 3.5000000000000004 0.14287316054105761 0.073183465749025359 -0.023240449838340279 -0.015786819159984585 -0.054388947784900658 -0.076305091381072984 0.027354065328836445 -0.013243599154041779 -0.089184703273252855 -0.14864103851123919 0.030506310053169731 0.14303460022836842 0.090443346649408354 0.10106210410594942 -0.0086269541643559915
decision_type=2 2 2 2 2 2 2 2 2 2 2 2 2 2 2 2 2 2 2 2 2 2 2 2 2 2 2 2 2 2
left_child=6 -2 3 4 5 -3 9 -4 13 14 -11 -9 26 -7 16 -16 -1 18 21 -13 24 -18 27 -23 28 -24 -5 29 -17 -21
right_child=1 2 7 12 -6 8 -8 11 -10 10 -12 19 -14 -15 15 20 17 -19 -20 22 -22 23 25 -25 -26 -27 -28 -29 -30 -31
leaf_value=0.12214967068568479 0.11397789501064866 0.064655959436795404 -0.0074304161444478309 -0.059884280474909457 0.12574710477230344 -0.043241781254759526 0.069228239481136128 -0.019396460140839931 0.0091821530315763285 0.081159814306722033 0.11651201271709587 -0.061873847398129456 -0.035252663902362175 -0.064468277751370595 0.097733710914986546 0.11547602701231402 0.11583730544763909 0.11783880988380729 0.11635630829168363 -0.059951698786276313 0.11630278754389212 0.11547304197919439 -0.059976921961966856 0.11562356567440801 0.11560600532807508 -0.060274617079105558 -0.06018146206806646 -0.060000163437413226 0.11556928615057267 -0.059772529695767268
leaf_weight=43.416639149188995 42.818945825099945 34.630166560411453 13.066484987735747 19.702322274446491 15.372910827398298 8.4510088860988635 44.063999786973 8.5720866918563825 9.3032935708761233 34.565092399716377 38.974628955125809 8.9448515772819501 7.0251523405313483 11.404094293713568 38.132719352841377 320.18292361497879 44.965123295783997 43.036714553833008 73.415567100048065 10.377657562494276 43.190686583518982 335.76141077280045 20.233991160988811 48.445311307907104 52.772703111171722 9.4679220616817457 7.3063881695270529 8.7471857070922834 44.990059494972229 558.40543586015701
leaf_count=51 51 95 77 143 20 50 98 55 43 65 46 58 47 70 55 370 52 50 85 75 50 388 146 56 61 67 52 63 52 4083
internal_value=0.0524887 -0.0389948 -0.0477165 0.0113936 0.0398796 0.0191858 0.112711 -0.058207 -0.0348172 0.11436 0.0998958 -0.059269 -0.0548637 -0.0554336 0.115337 0.114215 0.116288 0.115822 0.115649 -0.0598237 0.115577 0.115528 -0.0597935 0.115492 0.115502 -0.0600718 -0.0599647 -0.0597792 0.115488 -0.0597758
internal_weight=1999.74 793.83 751.011 113.195 79.1615 63.7886 1205.91 637.816 29.1584 1161.85 73.5397 624.749 34.0339 19.8551 1088.31 499.269 589.041 545.624 502.587 616.177 461.136 429.172 607.232 384.207 417.946 29.7019 27.0087 577.53 365.173 568.783
internal_count=6674 5195 5144 520 278 258 1479 4624 163 1381 111 4547 242 120 1270 588 682 631 581 4492 533 496 4434 444 483 213 195 4221 422 4158
is_linear=0
shrinkage=0.05


Tree=7
num_leaves=31
num_cat=0
split_feature=89 45 182 2 5 9 121 5 26 221 194 85 165 196 236 230 47 150 18 82 229 2 134 236 79 3 54 176 202 238
split_gain=3911.92 387.382 178.152 78.1273 49.9001 69.2637 31.9971 26.1616 14.0347 5.02961 4.46935 5.70933 3.99844 1.76539 1.398 1.00481 0.357837 0.171948 0.103249 0.021572 0.0182842 0.0129114 0.00806436 0.00344068 0.00321871 0.000504627 0.000383609 0.000338234 0.000317911 0.000223993
threshold=-0.01222366141155362 1.5000000000000002 -0.060421554371714585 0.57252597997368049 -0.051871317754668099 -0.033019057800124867 0.021961507387459282 -0.074046077075537606 -0.012289993688000125 -0.033032009378075593 -0.0064164346549659959 -0.018755293451249596 0.0011386532569304111 0.1500697731971741 0.085133571177721037 -0.035620158538222306 -0.0082949013449251634 0.088932987302541747 -0.063432139007171401 -0.056011034175753587 0.027829014696180824 0.052710653979979351 0.033113293349742896 0.11046579480171205 -0.084121827036142335 -0.14611594992323729 0.11450544744729997 -0.0013349432265385983 -0.017729840241372582 0.12328170612454416
decision_type=2 2 2 2 2 2 2 2 2 2 2 2 2 2 2 2 2 2 2 2 2 2 2 2 2 2 2 2 2 2
left_child=6 -2 3 4 5 -3 10 -8 9 -4 15 -12 21 19 27 -1 -17 18 20 -11 22 -7 -18 25 -21 26 -24 -5 -26 -30
right_child=1 2 8 14 -6 12 7 -9 -10 13 11 -13 -14 -15 -16 16 17 -19 -20 24 -22 -23 23 -25 28 -27 -28 -29 29 -31
leaf_value=0.099708718001832147 0.10686415041774876 0.06221118432282479 -0.021429119035136213 -0.059318165574166463 0.098907033987610526 -0.064284738999480104 0.037137650326920388 0.1066003122031495 0.01135102402977029 -0.061750461248847838 0.11007060056330523 0.082369565952675888 -0.020520195174753515 -0.033370262779664109 -0.034092538541823814 0.11318557613237068 0.10903043157134262 0.10603872088891111 0.11073224146218363 -0.060290258110318663 0.10741719961191909 -0.061541388138941666 0.1084882216187153 0.10876981813438924 -0.05953130822925623 0.10851387414241404 0.10833671945534501 -0.059695223828842958 -0.059208966929049214 -0.059496867744672423
leaf_weight=33.629108712077141 43.369968175888062 31.012412771582603 9.0536336153745633 16.679604411125187 23.402961850166321 8.3889105618000084 30.201582834124565 24.592834532260895 7.2951214015483847 8.6143222302198392 35.523398891091347 39.046550378203392 8.2464928179979307 6.655359983444213 6.8757157027721396 39.040020406246185 51.632069766521454 77.167857870459557 48.839178681373596 7.069652095437049 47.542133972048759 8.7755580842494947 44.665056765079498 54.277728140354156 7.9261793494224539 48.166732609272003 647.34059053659439 9.2436905056238157 559.64125464856625 6.8385450094938269
leaf_count=46 51 82 59 126 39 50 80 33 42 56 44 63 48 46 48 45 59 91 56 50 55 59 51 62 59 55 739 68 4261 51
internal_value=0.0500434 -0.0382939 -0.0469687 0.0108311 0.0375249 0.0120652 0.105655 0.0683139 -0.0575866 -0.0584167 0.107409 0.0955657 -0.0491346 -0.0589779 -0.0541363 0.108217 0.108488 0.108308 0.108494 -0.0592667 0.108371 -0.0628822 0.108425 0.108386 -0.0592299 0.108357 0.108346 -0.0594526 -0.0592168 -0.0592124
internal_weight=1990.75 769.089 725.719 112.625 79.8263 56.4234 1221.66 54.7944 613.094 605.799 1166.87 74.5699 25.411 596.745 32.799 1092.3 1058.67 1019.63 942.463 590.09 893.624 17.1645 846.082 794.45 581.476 740.172 692.006 25.9233 574.406 566.48
internal_count=6674 5195 5144 520 278 239 1479 113 4624 4582 1366 107 157 4523 242 1259 1213 1168 1077 4477 1021 109 966 907 4421 845 790 194 4371 4312
is_linear=0
shrinkage=0.05


Tree=8
num_leaves=31
num_cat=0
split_feature=223 45 128 45 148 140 9 7 137 134 177 206 12 174 155 89 70 208 94 170 61 2 79 48 100 109 28 100 114 221
split_gain=3503.51 310.005 141.638 131.688 105.295 58.3785 49.09 29.4368 24.4669 9.13005 9.87987 6.86207 3.8868 1.74033 0.946231 0.8839 0.371266 0.322694 0.12559 0.175395 0.0710919 0.0292408 0.0164345 0.0137551 0.0137519 0.00695878 0.00370549 0.00369338 0.00191597 0.0012431
threshold=0.0096226520836353319 1.5000000000000002 -0.029071253724396225 3.5000000000000004 0.12517306953668597 -0.068466659635305391 -0.032518241715593421 -0.13207200370107028 0.053746327757835395 -0.0051290455739945165 0.010813907720148565 -0.066724728792905794 -0.10517858097283544 0.10554744675755502 -0.012970453128218649 -0.01222366141155362 0.10151144489645959 -0.0026103473501279946 -0.081189684569835649 0.082251872867345824 0.10392385721206666 0.39585266567740529 -0.084121827036142335 -0.018749350681900975 0.053084887564182288 0.07118555530905725 -0.012399229021341765 -0.035817731171846383 0.028170959092676643 -0.028094208799302575
decision_type=2 2 2 2 2 2 2 2 2 2 2 2 2 2 2 2 2 2 2 2 2 2 2 2 2 2 2 2 2 2
left_child=2 -2 3 -1 11 -5 7 -6 -9 10 -4 -3 21 22 16 -7 -11 -18 20 -20 -19 -8 -13 -17 26 28 29 -28 -21 -24
right_child=1 4 9 5 6 15 12 8 -10 14 -12 13 -14 -15 -16 23 17 18 19 25 -22 -23 24 -25 -26 -27 27 -29 -30 -31
leaf_value=0.11748915894547654 0.10076644485080349 -0.02112291766167318 0.059537701747984617 0.040211944686532171 0.091048243299138909 -0.078541381517081274 -0.063383677729925786 0.059242514486452395 -0.029481812517476925 0.10680744783651566 0.098204393652826197 -0.060731407878017868 -0.017797683646655658 -0.033181806135923107 0.095444702035273207 -0.058720663127720778 0.09796686880658724 0.10555355037022736 0.099123264462110297 0.10236173241313869 0.10282955353029499 -0.059457134889919633 -0.059330404802008047 -0.061847314420421129 -0.061014707250181766 0.10287142502975447 -0.058970376726194651 -0.060291084560728438 0.10268650590259609 -0.058677981926463833
leaf_weight=28.285384595394135 35.690753728151321 12.56101009249687 26.558772012591362 23.113872170448303 16.006860733032227 12.189940989017488 9.0548417717218452 13.437576293945314 18.423554912209511 47.254902586340904 43.707519732415676 10.647149845957754 7.0227272957563391 6.7159607708454123 50.099199652671814 7.586866021156311 41.704666465520859 47.400882124900818 42.130491778254509 728.35250890254974 48.419120967388153 9.9532981365919095 7.4081970155239096 6.5582641959190351 6.6121924370527259 80.111599743366241 26.905887417495251 6.590168207883834 48.431279957294464 505.07492254674435
leaf_count=33 42 79 59 88 44 53 59 43 96 55 60 76 40 48 66 60 51 54 50 827 55 75 56 46 48 91 209 48 55 4008
internal_value=0.0479116 -0.0427428 0.0968562 0.0314423 -0.0505457 -0.0177775 0.00567804 0.0357298 0.00793807 0.101079 0.0835894 -0.0576783 -0.0495839 -0.058484 0.102163 -0.0686739 0.102473 0.102276 0.102456 0.102273 0.104177 -0.0613276 -0.0587857 -0.0601703 -0.0587482 0.102428 -0.0587207 -0.0592302 0.102382 -0.0586874
internal_weight=1974.01 692.105 1281.91 77.7343 656.414 49.4489 73.8989 47.868 31.8611 1204.17 70.2663 582.515 26.0309 569.954 1133.9 26.3351 1083.81 1036.55 994.846 899.026 95.82 19.0081 563.239 14.1451 552.591 856.895 545.979 33.4961 776.784 512.483
internal_count=6674 4971 1703 280 4929 247 357 183 139 1423 119 4572 174 4493 1304 159 1238 1183 1132 1023 109 134 4445 106 4369 973 4321 257 882 4064
is_linear=0
shrinkage=0.05


Tree=9
num_leaves=31
num_cat=0
split_feature=223 45 128 45 148 140 9 7 2 62 134 177 206 12 174 155 89 236 74 14 228 139 2 104 157 48 226 82 150 28
split_gain=3158.44 286.341 127.341 117.009 101.739 53.9448 44.7804 25.2606 21.7796 10.8179 8.91413 8.91238 6.87225 3.83262 1.75584 0.938139 0.716881 0.377161 0.434738 0.135036 0.23876 0.0704558 0.0248537 0.0140044 0.0163038 0.011793 0.00898799 0.00560448 0.00234772 0.00233901
threshold=0.0096226520836353319 1.5000000000000002 -0.029071253724396225 3.5000000000000004 0.12517306953668597 -0.068466659635305391 -0.032518241715593421 -0.13207200370107028 -0.38302105530024555 0.023487793281674389 -0.0051290455739945165 0.010813907720148565 -0.066724728792905794 -0.10517858097283544 0.10554744675755502 -0.012970453128218649 -0.01222366141155362 0.028342477977275852 0.010904184542596342 -0.030539674042059477 0.07210277765989305 0.062277587130665786 0.39585266567740529 0.025103996507823471 0.10571677982807161 -0.018749350681900975 -0.04404837824404239 -0.049421906471252434 0.088530145585536971 -0.012398878603865222
decision_type=2 2 2 2 2 2 2 2 2 2 2 2 2 2 2 2 2 2 2 2 2 2 2 2 2 2 2 2 2 2
left_child=2 -2 3 -1 12 -5 7 -6 -9 -10 11 -4 -3 22 23 17 -7 -12 19 21 -21 26 -8 24 -14 -18 -19 -25 -28 -29
right_child=1 4 10 5 6 16 13 8 9 -11 15 -13 14 -15 -16 -17 25 18 -20 20 -22 -23 -24 27 -26 -27 28 29 -30 -31
leaf_value=0.11011178522267612 0.095638828185160507 -0.020332036701698458 0.056011418956423475 0.037604692301562104 0.083654138285994897 -0.076399738024804972 -0.062605070374899707 0.055854049711206367 -0.06643217511549486 0.010156334908983482 0.092391377202253558 0.092575809261030165 -0.0614576170391457 -0.017068952124778537 -0.032269226363101804 0.090342333937916949 -0.058223334043921694 0.097946958568241413 0.10162358278638035 0.092609407280007439 0.097379551949570514 0.099282001777839607 -0.058912985096051411 -0.05961655160331425 -0.058527442315570125 -0.061177575075125917 0.097274823187068246 -0.058196233720292395 0.097549284799566177 -0.058843687360525435
leaf_weight=28.66061919927597 35.722446471452713 12.401282496750353 26.812361016869545 23.471027985215187 16.536053642630577 11.912092298269274 8.7176268398761803 13.465385258197786 9.1373738795518893 9.3065504953265172 37.343790680170059 44.037043124437332 7.3139146491885212 6.9581085294485083 6.5644954517483702 50.276598110795021 7.2769297361373901 58.998851656913757 60.379146754741669 41.494580179452896 71.320171654224396 50.187749862670898 9.5530990064144117 7.226956218481063 13.527619846165178 6.3049726709723455 676.2187534570694 497.83540489524603 88.062075614929199 14.351512819528578
leaf_count=33 42 79 59 88 44 53 59 37 55 47 46 60 53 40 48 66 60 67 69 50 81 57 75 54 109 46 768 4115 100 114
internal_value=0.0460209 -0.0420878 0.0919463 0.0298742 -0.0498615 -0.0170912 0.00536923 0.0334998 0.00750882 -0.0277867 0.0959445 0.0787383 -0.0571378 -0.0486482 -0.0579726 0.0970192 -0.0674469 0.0973289 0.0975051 0.097253 0.095625 0.0974632 -0.0606746 -0.0582849 -0.0595557 -0.0595947 0.0973523 -0.0582339 0.0973064 -0.0582144
internal_weight=1951.37 668.618 1282.76 77.6256 632.895 48.965 73.6742 48.4454 31.9093 18.4439 1205.13 70.8494 559.221 25.2288 546.82 1134.28 25.494 1084.01 1046.66 986.282 112.815 873.467 18.2707 540.255 20.8415 13.5819 823.28 519.414 764.281 512.187
internal_count=6674 4971 1703 280 4929 247 357 183 139 102 1423 119 4572 174 4493 1304 159 1238 1192 1123 131 992 134 4445 162 106 935 4283 868 4229
is_linear=0
shrinkage=0.05


Tree=10
num_leaves=31
num_cat=0
split_feature=223 45 128 45 148 140 9 127 128 19 24 184 206 4 174 86 228 122 89 227 2 104 157 48 194 27 224 236 112 3
split_gain=2862.26 265.203 115.442 104.79 98.2751 49.9387 40.9322 23.7567 30.5146 14.8314 8.96363 17.5034 6.88731 3.78728 1.77371 1.1594 0.616118 1.01801 0.583762 0.170146 0.0154883 0.0120002 0.0140124 0.0101202 0.00531939 0.00474142 0.00262848 0.00226451 0.00114323 0.000801406
threshold=0.0096226520836353319 1.5000000000000002 -0.029071253724396225 3.5000000000000004 0.12517306953668597 -0.068466659635305391 -0.032518241715593421 0.038423726335167892 -0.043767474591732018 -0.013242372526014986 -0.059520442781124547 0.099906962364912047 -0.066724728792905794 -0.12561587057923965 0.10554744675755502 -0.078529454767703996 0.04848757945001126 0.055801240727305419 -0.01222366141155362 -0.048123700544238084 0.3272722373635093 0.025103996507823471 0.10571677982807161 -0.018749350681900975 -0.010901237372308968 -0.012623481278035633 0.049111308529973037 0.11046579480171205 1.0000000180025095e-35 -0.14485340562923635
decision_type=2 2 2 2 2 2 2 2 2 2 2 2 2 2 2 2 2 2 2 2 2 2 2 2 2 2 2 2 2 2
left_child=2 -2 3 -1 12 -5 7 -6 9 -9 15 -12 -3 20 21 -4 -17 19 -7 24 -8 22 -14 -20 27 28 -27 29 -23 -18
right_child=1 4 10 5 6 18 13 8 -10 -11 11 -13 14 -15 -16 16 17 -19 23 -21 -22 25 -24 -25 -26 26 -28 -29 -30 -31
leaf_value=0.10393298037705073 0.091214267141672911 -0.019563466823437556 0.083607570998528197 0.035220468608975118 0.078976917388454082 -0.074470537847746751 -0.061535532305492247 -0.06549812271283327 0.070410658221076644 0.022563447121204439 0.047008392735326476 0.093644992624562787 -0.060815249103366789 -0.015593647339498293 -0.031370395784738069 0.099241090820630526 0.092891587631490274 0.085760295744287493 -0.05775822373587737 0.095791053875814006 -0.058541562426121824 -0.058139506363252005 -0.058043195343570754 -0.060551619853858596 0.093401675550718419 -0.059161748800100999 -0.058000111881968297 0.093210660865546358 -0.057722176535105564 0.093109411020407082
leaf_weight=28.840749204158783 35.585371732711792 12.248037964105604 33.895654141902924 23.798125773668289 17.121663600206375 11.617115005850794 7.3944609016180101 12.322633340954786 11.624961428344248 7.812842182815074 32.474519431591034 52.88024765253067 7.028829991817477 6.6650927364826194 6.4187088459730139 38.133791714906693 764.76968318223953 49.338588371872902 6.9763560444116592 56.189406096935272 10.388069942593573 17.015593327581882 12.972500018775461 6.057899557054041 63.12048602104187 8.9524571076035517 10.678089737892149 64.860728442668915 461.31683199852705 44.694109976291656
leaf_count=33 42 79 45 88 44 53 52 76 26 37 71 64 53 38 48 47 873 62 60 64 84 142 109 46 72 70 90 74 3981 51
internal_value=0.0443459 -0.0414674 0.087704 0.0284744 -0.0492081 -0.0164441 0.00508421 0.0315026 0.00590976 -0.031329 0.0915178 0.0759014 -0.0566271 -0.0477383 -0.0574928 0.0927132 0.0929987 0.0927705 -0.0663205 0.0931186 -0.0597865 -0.0578165 -0.0590173 -0.0590565 0.0929584 -0.0577683 -0.0585299 0.0929264 -0.057737 0.0929036
internal_weight=1923.19 645.546 1277.65 77.2902 609.961 48.4495 73.3297 48.8821 31.7604 20.1355 1200.36 85.3548 536.631 24.4476 524.383 1115 1081.11 1042.97 24.6514 993.634 17.7825 517.964 20.0013 13.0343 937.445 497.963 19.6305 874.325 478.332 809.464
internal_count=6674 4971 1703 280 4929 247 357 183 139 113 1423 135 4572 174 4493 1288 1243 1196 159 1134 136 4445 162 106 1070 4283 160 998 4123 924
is_linear=0
shrinkage=0.05


Tree=11
num_leaves=31
num_cat=0
split_feature=223 45 128 148 45 140 9 7 137 134 207 26 8 79 155 89 236 74 68 174 111 2 82 48 117 109 210 150 114 192
split_gain=2605.37 246.19 105.402 94.8757 94.4671 46.3077 37.4883 21.2558 19.6526 8.78579 8.7281 6.99981 3.99159 2.91616 0.982559 0.477105 0.389253 0.291434 0.130095 0.0386402 0.020367 0.0164727 0.0125329 0.00869184 0.00864815 0.00346082 0.00229922 0.00103931 0.000914048 0.000738413
threshold=0.0096226520836353319 1.5000000000000002 -0.029071253724396225 0.12517306953668597 3.5000000000000004 -0.068466659635305391 -0.032518241715593421 -0.13207200370107028 0.053746327757835395 -0.0051290455739945165 0.028065387159585956 -0.012395422188053302 -0.030791804830611575 -0.088310997933149324 -0.012970453128218649 -0.01222366141155362 0.028342477977275852 0.010904184542596342 0.050267284736037261 -0.022390730679035183 -0.0037135987076908346 0.39585266567740529 -0.056011034175753587 -0.018749350681900975 0.032046433538198478 0.07118555530905725 0.041668033227324493 0.088932987302541747 0.028170959092676643 0.22750129550695422
decision_type=2 2 2 2 2 2 2 2 2 2 2 2 2 2 2 2 2 2 2 2 2 2 2 2 2 2 2 2 2 2
left_child=2 -2 4 11 -1 -6 7 -5 -9 10 -4 13 21 -3 16 -7 -11 18 19 20 -18 -8 -15 -17 26 27 -24 28 -22 -28
right_child=1 3 9 6 5 15 12 8 -10 14 -12 -13 -14 22 -16 23 17 -19 -20 -21 25 -23 24 -25 -26 -27 29 -29 -30 -31
leaf_value=0.098685512303549605 0.087357680055470038 -0.032934014400912606 0.047641820755910516 0.074763732834744315 0.033032077730086047 -0.072725578286007522 -0.061169407966179028 0.049987728767915497 -0.028867244819461485 0.084023633301561304 0.083949055496125358 -0.0024909019037429982 -0.013674814371332333 -0.059432743560859383 0.081894832204737686 -0.05732282605292606 0.088024079181176162 0.092631569858927398 0.086387748323150618 0.090534076997771107 0.089082767554024764 -0.058066100791192343 -0.057291190866608305 -0.059965877494462465 -0.059086340786962434 0.089505673498761262 -0.057608346898280399 0.08932057925162884 0.089309124852571808 -0.058224659288793938
leaf_weight=28.854568004608154 35.305230170488358 12.508732080459593 26.128544121980667 17.083853036165237 24.098003149032593 11.308869987726213 8.2387659549713188 14.075933367013929 18.012327812612057 36.954256892204285 45.166857719421387 6.0082199946045867 6.5531734302639952 7.3130002543330184 50.001989960670471 6.6852414309978485 42.789540380239487 59.887555837631226 44.206030309200287 48.760229408740997 671.79392510652542 8.8907022923231107 446.35501475632191 5.8173101991415006 7.0469933003187171 60.820047557353973 29.709546379745007 56.457471907138824 47.769754588603973 5.8105264231562606
leaf_count=33 42 90 57 44 88 53 60 43 96 46 62 39 39 57 66 60 50 69 53 56 774 75 4019 46 59 70 260 65 55 48
internal_value=0.0428511 -0.0408801 0.0840007 -0.048585 0.0272137 -0.0158318 0.00481901 0.0297101 0.00572352 0.0876616 0.0706431 -0.0561435 -0.0468623 -0.0567771 0.0887455 -0.0652838 0.0890658 0.0892463 0.0890378 0.089164 0.0890881 -0.0595587 -0.0573782 -0.0585526 -0.0573474 0.0891425 -0.057322 0.089114 0.0890978 -0.0577092
internal_weight=1890.41 622.912 1267.5 587.607 76.764 47.9094 72.8548 49.1721 32.0883 1190.74 71.2954 514.752 23.6826 508.744 1119.44 23.8114 1069.44 1032.48 972.597 928.391 879.631 17.1295 496.235 12.5026 488.922 836.841 481.875 776.021 719.564 35.5201
internal_count=6674 4971 1703 4929 280 247 357 183 139 1423 119 4572 174 4533 1304 159 1238 1192 1123 1070 1014 135 4443 106 4386 964 4327 894 829 308
is_linear=0
shrinkage=0.05


Tree=12
num_leaves=31
num_cat=0
split_feature=223 45 128 148 45 140 2 181 26 24 184 206 66 158 86 228 122 89 8 227 4 79 100 48 194 28 47 236 221 3
split_gain=2380.57 228.926 96.8363 91.7575 85.6388 43.0074 34.7887 22.5861 12.5616 9.16687 16.2596 7.10508 1.88932 1.72823 1.20074 0.439684 0.964092 0.391241 0.127845 0.122564 0.0126223 0.0109411 0.00768673 0.0074704 0.00324775 0.00294857 0.00218469 0.00131281 0.000736733 0.000474371
threshold=0.0096226520836353319 1.5000000000000002 -0.029071253724396225 0.12517306953668597 3.5000000000000004 -0.068466659635305391 -0.36542097903131271 -0.11130838468670844 -0.012616362258573101 -0.059520442781124547 0.099906962364912047 -0.066724728792905794 0.15509418398141864 0.051522662863135345 -0.078529454767703996 0.04848757945001126 0.055801240727305419 -0.01222366141155362 -0.038949713275794225 -0.048123700544238084 -0.14601251753306027 -0.084121827036142335 0.053084887564182288 -0.018749350681900975 -0.010901237372308968 -0.012398878603865222 0.012105165980756285 0.11046579480171205 -0.029719542711973187 -0.14485340562923635
decision_type=2 2 2 2 2 2 2 2 2 2 2 2 2 2 2 2 2 2 2 2 2 2 2 2 2 2 2 2 2 2
left_child=2 -2 4 11 -1 -6 -5 -8 13 14 -11 -3 21 18 -4 -16 19 -7 -9 24 -20 -13 25 -19 27 28 -27 29 -23 -17
right_child=1 3 9 6 5 17 7 8 -10 10 -12 12 -14 -15 15 16 -18 23 20 -21 -22 22 -24 -25 -26 26 -28 -29 -30 -31
leaf_value=0.094176659999060788 0.083966455560573375 -0.01735363081263885 0.076179508137460758 0.054331581193926504 0.031016801383028272 -0.071141426266628005 0.045812023904624355 -0.06733443627380821 0.0077566235094131165 0.040760958773261122 0.08574878480256333 -0.058709244772071949 -0.028991236816759483 -0.032987892463870905 0.091084450898027206 0.085755288213991032 0.07871696311633497 -0.056914873901980391 -0.057826799986619028 0.088231872209764653 -0.060993625201031999 -0.057457114487762209 -0.058781405766918884 -0.05941715095936409 0.086157526350443589 -0.058316498714085369 -0.057181687454725176 0.086000967367124884 -0.056887407855713536 0.085924704984075465
leaf_weight=28.726971209049225 34.904448479413986 11.800615318119524 33.467174217104912 23.657266169786453 24.373198583722115 10.990721374750139 10.399256505072115 8.1872586831450462 11.041462972760199 32.640103533864021 52.212450951337814 8.9547573551535589 6.1077150776982299 6.5311333090066901 37.934673517942429 748.04809409379959 48.427411422133446 6.4036240726709366 6.7028089240193358 55.27313095331192 5.9304623231291815 5.7498697713017455 5.6285309419035903 5.5834030881524068 61.797445595264435 5.9120893850922611 15.005909629166124 63.478577733039856 434.43099700659513 43.734249532222748
leaf_count=33 42 79 45 62 88 53 44 48 52 71 64 74 50 48 47 873 62 60 58 64 45 51 48 46 72 50 137 74 4083 51
internal_value=0.0415051 -0.0403085 0.0807404 -0.0479718 0.0260691 -0.0152506 0.00457334 -0.0195522 -0.0372569 0.0842741 0.0684434 -0.0556844 -0.0566233 -0.0554283 0.085504 0.0857988 0.0856024 -0.0643278 -0.0624675 0.0859453 -0.0593134 -0.056978 -0.0569448 -0.0580804 0.0858075 -0.0569224 -0.0575024 0.0857822 -0.0568948 0.0857646
internal_weight=1854.04 600.945 1253.09 566.04 76.0779 47.3509 72.4496 48.7924 38.3931 1177.01 84.8526 493.59 481.79 27.3517 1092.16 1058.69 1020.76 22.9777 20.8205 972.331 12.6333 475.682 466.727 11.987 917.058 461.099 20.918 855.261 440.181 791.782
internal_count=6674 4971 1703 4929 280 247 357 295 251 1423 135 4572 4493 199 1288 1243 1196 159 151 1134 103 4443 4369 106 1070 4321 187 998 4134 924
is_linear=0
shrinkage=0.05


Tree=13
num_leaves=31
num_cat=0
split_feature=223 45 196 148 5 9 20 127 128 19 155 17 26 4 79 230 226 74 155 25 238 181 2 82 117 210 122 192 111 114
split_gain=2182.33 213.176 90.5155 88.8467 41.2836 32.9164 27.6807 19.0375 28.6659 13.8727 12.0542 11.2294 7.29024 4.18712 3.0573 1.53798 1.0287 0.537485 0.439982 0.0720224 0.0763782 0.0120718 0.0113821 0.0107939 0.0065302 0.00199061 0.00123251 0.000663746 0.000619095 0.000519397
threshold=0.0096226520836353319 1.5000000000000002 0.042112624272704131 0.12517306953668597 -0.077213899835661834 -0.032518241715593421 -0.039157206473123186 0.038423726335167892 -0.042882567271590226 -0.0132422011865243 0.039221193641424186 -0.068366466065258952 -0.012378339692064125 -0.11847704414540246 -0.088310997933149324 -0.038687324151396744 -0.050151100382208817 0.027153807692229751 -0.015154005959630011 -0.043393041914937709 0.032113654538989074 0.17932466417551043 0.3272722373635093 -0.056011034175753587 0.032046433538198478 0.041668033227324493 0.047087104991078384 0.22750129550695422 -1.0000000180025095e-35 0.028170959092676643
decision_type=2 2 2 2 2 2 2 2 2 2 2 2 2 2 2 2 2 2 2 2 2 2 2 2 2 2 2 2 2 2
left_child=2 -2 11 12 10 7 -6 -5 9 -9 -4 15 14 22 -3 -1 -17 18 19 20 21 -18 -7 -16 25 -25 29 28 -27 -23
right_child=1 3 4 5 6 13 -8 8 -10 -11 -12 -13 -14 -15 23 16 17 -19 -20 -21 -22 26 -24 24 -26 27 -28 -29 -30 -31
leaf_value=0.07006972177369046 0.080961214627954664 -0.030954898853729502 0.0040720932061349023 0.068397984515687946 0.088636376193650321 -0.060133111359168545 0.010661086173554775 -0.064989571542969846 0.067304376484744563 0.019842341152443946 -0.062776975759814876 0.058416041800795182 0.00092574912108653567 -0.0097159671937670049 -0.058564297724939554 0.074649304673352498 0.083705187540931147 0.088388033344415751 0.077717955503436839 0.084871504496126557 0.080801296507595169 0.082820711203041658 -0.05747708381756348 -0.056505126048202993 -0.058133445717694736 -0.05668656091867294 0.083068057453291849 -0.057411278541758683 -0.057271596908917116 0.082993239834027302
leaf_weight=25.082002237439156 34.402612656354904 11.9371987208724 15.905554391443731 17.876712158322334 24.977729521691799 6.8842292353510919 20.909381657838821 12.337129205465322 11.389597810804842 7.9087030887603751 11.706939958035944 51.449599474668503 5.7062040939927092 5.9551732093095771 6.8074057698249808 39.277447670698166 43.225992918014526 42.663637638092041 43.137085974216461 43.341359436511993 46.055846139788628 721.84002441167831 9.7412867248058301 409.38663329929113 6.4845689162611952 21.60611666738987 59.118290603160858 5.494470812380313 5.7189518958330181 46.42902672290802
leaf_count=40 42 90 56 44 38 53 85 79 23 37 88 98 38 34 57 54 51 50 55 51 56 856 87 4019 59 208 70 49 52 55
internal_value=0.0402856 -0.0397526 0.0778472 -0.0473693 0.0240368 0.00433763 0.0531054 0.0271538 0.00384734 -0.0318514 -0.0242701 0.081252 -0.0552479 -0.0456909 -0.0559336 0.0823103 0.0825933 0.0828916 0.0826578 0.0828798 0.0827856 0.0828906 -0.0585769 -0.0565882 -0.0565583 -0.0565352 0.0828481 -0.0569098 -0.056809 0.0828311
internal_weight=1814.76 579.637 1235.12 545.234 73.4996 72.0928 45.8871 49.5121 31.6354 20.2458 27.6125 1161.62 473.142 22.5807 467.435 1110.17 1085.09 1045.81 1003.15 960.011 916.669 870.613 16.6255 455.498 448.691 442.206 827.387 32.8195 27.3251 768.269
internal_count=6674 4971 1703 4929 267 357 123 183 139 116 144 1436 4572 174 4534 1338 1298 1244 1194 1139 1088 1032 140 4444 4387 4328 981 309 260 911
is_linear=0
shrinkage=0.05


Tree=14
num_leaves=31
num_cat=0
split_feature=223 45 148 128 45 140 9 7 140 24 177 2 26 4 79 86 3 228 89 122 227 2 82 65 117 134 210 231 192 236
split_gain=2005.29 198.834 85.8114 85.6429 74.8206 38.7663 30.2517 17.9299 16.2963 9.03111 15.0099 7.97921 7.48778 4.11898 3.12218 1.28015 0.341513 0.365757 0.339085 0.188792 0.0725377 0.00968711 0.00918704 0.00750443 0.00566024 0.00357843 0.00173585 0.000672715 0.000590261 0.0005565
threshold=0.0096226520836353319 1.5000000000000002 0.12517306953668597 -0.029071253724396225 3.5000000000000004 -0.068466659635305391 -0.032518241715593421 -0.13207200370107028 -0.059453373774886124 -0.059520442781124547 0.016595434397459034 -0.17279420833711426 -0.012289993688000125 -0.11847704414540246 -0.088310997933149324 -0.078529454767703996 -0.14359086133523538 0.050882961601018913 -0.01222366141155362 0.054888697341084487 -0.048123700544238084 0.3272722373635093 -0.056011034175753587 0.01621273905038834 0.032046433538198478 0.034958001226186759 0.041668033227324493 -0.0082154055126011354 0.22750129550695422 0.11046579480171205
decision_type=2 2 2 2 2 2 2 2 2 2 2 2 2 2 2 2 2 2 2 2 2 2 2 2 2 2 2 2 2 2
left_child=3 -2 12 4 -1 -6 7 -4 -9 15 -11 -10 14 21 -3 -5 17 -17 -7 20 25 -8 -16 -20 26 -19 -24 29 -28 -27
right_child=1 2 6 9 5 18 13 8 11 10 -12 -13 -14 -15 22 16 -18 19 23 -21 -22 -23 24 -25 -26 27 28 -29 -30 -31
leaf_value=0.087740152114470546 0.078279490232186999 -0.030043618890673682 0.066541146551505934 0.070129838437589492 0.027649544278774099 -0.069994525107494085 -0.059562650319263104 0.047756455402382096 0.002873397519813416 0.033481500343406689 0.07811959243534275 -0.061693301634108869 0.0032088748427496743 -0.0092764489668230223 -0.058088545007591731 0.08508374300335661 0.076250967951284429 0.080678498382317096 -0.05639171219034983 0.077103192611105917 0.082239403202366487 -0.057060823202694802 -0.056147752044697075 -0.058969632025722696 -0.057696615841583046 0.080205072425127588 -0.056435026829717697 0.080419234858410765 -0.057009996246127376 0.080385375454464378
leaf_weight=28.204311549663544 33.816860228776932 11.690673328936098 17.443448066711426 32.652049377560616 24.675901129841805 10.67703451216221 6.6096067801117924 12.654866605997084 11.038514524698256 28.673892736434937 54.869373798370361 8.4463728368282336 5.4895147979259482 5.9262219592928878 6.5270934253931037 39.94387212395668 52.302667707204819 46.505488991737366 6.10742289572954 46.811463057994843 48.594565212726593 9.332081586122511 391.83642540127039 5.2495876550674438 6.2138301879167548 700.90077012777328 26.267112217843536 43.102452278137207 5.3775209113955489 45.57855361700058
leaf_count=33 42 90 44 45 88 53 53 38 39 63 72 62 36 34 57 49 67 56 61 59 58 87 4019 45 59 847 261 52 50 55
internal_value=0.0391667 -0.0392347 -0.0468063 0.075221 0.0234351 -0.0153935 0.0041222 0.0257283 0.00357766 0.0786243 0.0627988 -0.0251152 -0.0548321 -0.0448674 -0.0555434 0.0798758 0.0801867 0.0803986 -0.0635974 0.0801977 0.0803614 -0.0580981 -0.0562268 -0.0575833 -0.0561985 0.0802523 -0.0561765 0.0802272 -0.0565327 0.0802161
internal_weight=1773.52 558.67 524.853 1214.85 74.9143 46.7099 71.4511 49.5832 32.1398 1139.94 83.5433 19.4849 453.402 21.8679 447.913 1056.39 1023.74 971.437 22.034 931.493 884.682 15.9417 436.222 11.357 429.695 836.087 423.481 789.582 31.6446 746.479
internal_count=6674 4971 4929 1703 280 247 357 183 139 1423 135 101 4572 174 4536 1288 1243 1176 159 1127 1068 140 4446 106 4389 1010 4330 954 311 902
is_linear=0
shrinkage=0.05


Tree=15
num_leaves=31
num_cat=0
split_feature=223 45 148 196 5 9 20 127 128 19 101 17 206 12 174 230 226 74 155 25 238 0 79 181 100 26 122 3 179 61
split_gain=1848.14 185.641 82.9927 80.7125 35.2556 27.8079 24.2724 16.183 24.7767 13.3203 11.3567 11.0777 7.52069 4.31958 2.0797 1.60611 1.13394 0.40366 0.454343 0.0633053 0.0752399 0.0147221 0.0100218 0.00749623 0.00515571 0.00296555 0.000813031 0.000847854 0.00058551 0.0004113
threshold=0.0096226520836353319 1.5000000000000002 0.12517306953668597 0.042112624272704131 -0.077213899835661834 -0.032518241715593421 -0.039157206473123186 0.038423726335167892 -0.042882567271590226 -0.013242038988289304 0.047552188858389861 -0.068366466065258952 -0.066724728792905794 -0.10126342794692907 0.10554744675755502 -0.038687324151396744 -0.050151100382208817 0.027153807692229751 -0.015154005959630011 -0.043393041914937709 0.032113654538989074 -0.0099146791932554889 -0.084121827036142335 0.17932466417551043 0.053084887564182288 -0.012616362258573101 0.047087104991078384 -0.14485340562923635 0.11217778176069261 -0.037992825731635087
decision_type=2 2 2 2 2 2 2 2 2 2 2 2 2 2 2 2 2 2 2 2 2 2 2 2 2 2 2 2 2 2
left_child=3 -2 12 11 10 7 -6 -4 9 -9 -5 15 -3 21 22 -1 -17 18 19 20 23 -7 -14 -18 25 28 27 -25 29 -24
right_child=1 2 5 4 6 13 -8 8 -10 -11 -12 -13 14 -15 -16 16 17 -19 -20 -21 -22 -23 24 26 -26 -27 -28 -29 -30 -31
leaf_value=0.06463972395406635 0.075871459509867983 -0.013841919343630299 0.061702651059764357 -0.058731102944645702 0.081953712456932004 -0.06000634527772615 0.0088177027749272927 -0.064326339173583755 0.060865791498002045 0.019496852397254849 0.0065602310554008104 0.053340932587919582 -0.057619732456628305 -0.0078900526325874649 -0.0248330865256189 0.069126244207117507 0.078598829851971919 0.082739777853212279 0.072593118718585342 0.079828340087521071 0.075829905606976361 -0.056850996964507738 -0.056068091726261621 0.077883031764608771 -0.057467159021118486 -0.056753137343470816 0.078092502011836401 0.078113782304441687 -0.056358114411452637 -0.055809831638998053
leaf_weight=24.526214070618153 33.162171065807343 11.117930874228476 18.320332527160645 12.451881386339666 24.762995600700378 6.3078586533665684 20.936004228889942 12.02834745496512 11.526983022689818 7.8210706785321227 14.318836987018583 50.583332203328609 8.3247773945331556 5.9396794736385337 5.4565394744276992 38.178620725870132 41.594826221466064 41.399347424507141 41.706294551491737 41.856155693531036 44.293683841824532 8.9302658364176732 16.078414939343929 695.89544248580933 4.9749241545796385 8.8451709598302823 56.826258957386017 42.223897635936737 5.1303141415119162 374.43418953567743
leaf_count=40 42 79 44 79 38 51 85 80 23 36 65 98 76 37 48 54 51 50 55 51 56 86 167 859 48 86 70 52 53 4015
internal_value=0.0381543 -0.0387277 -0.0462496 0.0728931 0.021756 0.00391803 0.048448 0.0243629 0.0025607 -0.0312983 -0.0238088 0.0762047 -0.0544354 -0.0440589 -0.0555017 0.0772871 0.0775842 0.0779052 0.0776977 0.0779284 0.0778382 -0.0581572 -0.0559023 0.0779445 -0.0558674 -0.0558477 0.0779103 0.0778962 -0.0558274 -0.0558205
internal_weight=1729.95 538.399 505.237 1191.55 72.4697 70.8745 45.699 49.6967 31.3764 19.8494 26.7707 1119.08 434.362 21.1778 423.244 1068.5 1043.97 1005.8 964.397 922.69 880.834 15.2381 417.788 836.54 409.463 404.488 794.946 738.119 395.643 390.513
internal_count=6674 4971 4929 1703 267 357 123 183 139 116 144 1436 4572 174 4493 1338 1298 1244 1194 1139 1088 137 4445 1032 4369 4321 981 911 4235 4182
is_linear=0
shrinkage=0.05


Tree=16
num_leaves=31
num_cat=0
split_feature=89 45 182 2 21 5 5 9 82 196 18 56 230 155 5 114 194 192 166 148 223 113 211 9 28 3 113 47 134 221
split_gain=1706.95 187.204 119.922 48.7668 33.6672 49.6796 32.4304 31.7727 23.2053 12.7527 10.4136 9.55284 7.08597 2.25025 4.34102 0.195369 0.189557 0.0703362 0.224614 0.0300537 0.0280987 0.0139886 0.0085349 0.00778546 0.0059826 0.00252327 0.00166754 0.00121471 0.000893241 0.000877157
threshold=-0.0099633112549781782 1.5000000000000002 -0.060421554371714585 0.78865038654368047 -0.034381969455223704 -0.067710431555289177 -0.029696558433798575 -0.032941545679654669 -0.075320936739444719 0.11910080164670946 -0.063383031865997697 0.20589528977870944 -0.039762923493981354 -0.0065579903312027446 -0.070878254315413405 0.0283854128792882 -0.0089678689837455732 0.011442240327596666 -0.0069072090554982415 0.12517306953668597 0.0096226520836353319 0.052220094949007041 0.075999248772859587 -0.032568025159773771 -0.012398882046460521 -0.14485340562923635 -0.054208492860198014 0.041106035932898528 0.041690053418278701 -0.030826303176581856
decision_type=2 2 2 2 2 2 2 2 2 2 2 2 2 2 2 2 2 2 2 2 2 2 2 2 2 2 2 2 2 2
left_child=4 -2 3 6 12 -6 7 9 -4 -3 -9 19 -1 15 -15 16 17 21 -19 22 -5 25 24 -21 29 28 -22 -26 -14 -10
right_child=1 2 8 20 5 -7 -8 10 11 -11 -12 -13 13 14 -16 -17 -18 18 -20 23 26 -23 -24 -25 27 -27 -28 -29 -30 -31
leaf_value=0.049894238941713132 0.074249360615315549 0.066907742385765287 0.11975271327677264 -0.059989774557466929 -0.033284590825193756 0.076707297876532715 0.092151344030077131 -0.0025859551306576674 -0.056148352186634679 0.009130252272186494 -0.062766790275822645 -0.005620255547320669 0.076016930724283963 0.053548386406344219 0.078230797879933298 0.072550481701369837 0.078923270751409744 0.076750956698210804 0.071590715472830121 -0.059282282756847549 -0.055911676588893372 0.076735724111994405 -0.057736042325476258 -0.056857971514960075 -0.056814969084291678 0.076205577834028315 -0.057016825137141236 -0.055929983924288731 0.075789216941616958 -0.055502983474333689
leaf_weight=28.593113347887993 37.279804229736328 20.15064537525177 1.9197004139423359 9.5415182933211344 18.220052912831306 23.515374943614006 14.464031696319578 15.87133952975273 5.341556340456008 18.155091799795628 13.138981550931932 9.7673765346407873 46.019154191017151 33.807842373847961 37.65440659224987 45.68367962539196 49.098447144031525 45.559680759906769 39.260396689176559 6.2390445694327354 6.9622465372085571 44.722356498241425 4.5315341874957076 7.0581085905432683 10.356043249368669 41.337534129619598 6.6961628124117833 6.1979599297046652 670.99030536413193 367.54454184323549
leaf_count=66 48 40 7 73 79 31 19 92 55 61 95 78 58 58 47 60 61 57 52 50 74 56 44 68 100 52 63 66 848 4116
internal_value=0.03721 -0.0340099 -0.0417129 0.00607432 0.0727556 0.0286891 0.0242252 0.0096301 -0.0536872 0.039524 -0.0298423 -0.0544856 0.0744542 0.0751204 0.0665539 0.0757433 0.075899 0.0757318 0.0743625 -0.0556575 -0.0579079 0.0758764 -0.0555786 -0.0579955 -0.0555535 0.0758257 -0.0564535 -0.0564836 0.0758038 -0.0555122
internal_weight=1685.68 561.216 523.936 104.98 1124.46 41.7354 81.7801 67.3161 418.956 38.3057 29.0103 417.036 1082.73 1054.13 71.4622 982.672 936.988 887.889 84.8201 407.269 23.1999 803.069 393.972 13.2972 389.44 758.347 13.6584 16.554 717.009 372.886
internal_count=6674 5149 5101 517 1525 110 307 288 4584 101 187 4577 1415 1349 105 1244 1184 1123 109 4499 210 1014 4381 118 4337 958 137 166 906 4171
is_linear=0
shrinkage=0.05


Tree=17
num_leaves=31
num_cat=0
split_feature=223 45 148 128 45 154 2 7 16 120 99 134 133 79 9 121 233 47 89 109 84 135 9 125 28 3 179 111 134 61
split_gain=1580.26 162.645 77.5095 73.3406 63.4381 35.0628 24.9332 21.5514 31.6406 14.3774 12.0408 9.65511 8.81019 3.21613 3.02665 1.20379 0.528366 0.212313 0.170509 0.0599019 0.0184254 0.00843787 0.00613679 0.00380236 0.00367833 0.00224557 0.00106165 0.000534207 0.000508406 0.000492277
threshold=0.0096226520836353319 1.5000000000000002 0.12517306953668597 -0.029071253724396225 3.5000000000000004 -0.090579181909561143 0.90507907965304202 -0.13207247742874151 0.005519439398442144 0.15269692987203601 -0.10373205691576003 -0.0051290455739945165 0.1523554474115372 -0.088310997933149324 -0.03297251532173201 -0.016200435347855088 -0.015587749890983103 0.0041833776049315938 -0.01222366141155362 0.074813257902860655 0.12701087445020678 -0.029232237488031384 -0.032213018474483275 0.062917828559875502 -0.012398882046460521 -0.14485340562923635 0.10946261882781984 -0.0061524747870862475 0.043595060706138618 -0.024050285108387467
decision_type=2 2 2 2 2 2 2 2 2 2 2 2 2 2 2 2 2 2 2 2 2 2 2 2 2 2 2 2 2 2
left_child=3 -2 10 4 -1 -6 7 -4 9 -9 -3 12 -5 -12 -7 16 -13 -18 -16 20 25 -15 -8 24 29 28 27 -26 -19 -23
right_child=1 2 6 11 5 14 22 8 -10 -11 13 15 -14 21 18 -17 17 19 -20 -21 -22 23 -24 -25 26 -27 -28 -29 -30 -31
leaf_value=0.080871913972729637 0.07177850439251636 0.038403143249307582 0.072191452682116644 0.034230226212104274 0.03520156504166367 -0.027364249668281049 -0.058757037249085056 0.069788132401994801 -0.066132081402528672 -0.00097484141070899139 -0.027785452274763384 0.068199979351459869 0.070259202888979508 -0.057069158420067559 -0.070131795739974162 0.066388877632600082 0.077696866826143296 0.074072461706677958 -0.060418729153849764 0.072062091545028212 0.074985592678385199 -0.055517316711314685 -0.056605669492949186 -0.056741624088987412 -0.055476425381589305 0.074282800872090715 -0.056575360313827483 -0.056124119102724926 0.073915229963061574 -0.055198620859987724
leaf_weight=27.022947013378143 31.717023074626923 3.5162282437086096 13.910908408462999 30.932873427867889 19.34106283634901 7.7477234750986126 5.9075814485549927 12.358422048389913 12.54041378200054 17.124289877712727 10.92766812443733 39.967090368270874 37.583138674497604 6.5780733227729788 7.9532668292522475 57.75588895380497 38.723508238792419 55.667204439640045 10.461530588567253 41.63093937933445 45.369697749614716 12.562009632587431 7.5524648353457433 4.2976047694683066 8.8386407271027565 47.290627419948578 4.7632134556770316 4.975715935230256 672.69630044698715 342.07314899563789
leaf_count=33 42 22 31 64 69 48 50 31 91 79 89 55 55 65 40 82 49 72 90 55 58 141 75 45 100 61 48 52 872 4010
internal_value=0.0363522 -0.0377942 -0.0452213 0.0688452 0.0201909 -0.0158454 0.0035461 0.0182483 0.000391548 0.0286872 -0.0537128 0.0721505 0.0539932 -0.0545328 -0.0535828 0.0733956 0.0738255 0.074075 -0.0646138 0.0739124 0.0740062 -0.0552938 -0.0575499 -0.0552629 -0.0552458 0.0739489 -0.0559317 -0.0557097 0.0739272 -0.0552099
internal_weight=1639.79 499.643 467.926 1140.14 72.5265 45.5036 69.3941 55.934 42.0231 29.4827 398.532 1067.62 68.516 395.016 26.1625 999.101 941.345 901.378 18.4148 862.655 821.024 384.088 13.46 377.51 373.213 775.654 18.5776 13.8144 728.364 354.635
internal_count=6674 4971 4929 1703 280 247 357 232 201 110 4572 1423 119 4550 178 1304 1222 1167 130 1118 1063 4461 125 4396 4351 1005 200 152 944 4151
is_linear=0
shrinkage=0.05


Tree=18
num_leaves=31
num_cat=0
split_feature=89 45 182 2 21 5 5 15 26 109 7 234 170 25 66 24 3 228 9 25 121 148 223 9 213 212 47 79 116 90
split_gain=1465.63 163.581 110.572 43.3032 31.1842 43.8201 28.3424 28.6281 19.4259 15.4058 15.2168 9.18949 7.15736 3.03246 2.36523 1.73979 0.444803 0.302138 0.189208 0.0510985 0.0681524 0.0326975 0.0271411 0.00854943 0.00767476 0.00626716 0.00620352 0.00197562 0.00162322 0.0013158
threshold=-0.0099633112549781782 1.5000000000000002 -0.060421554371714585 0.78865038654368047 -0.034381969455223704 -0.067710431555289177 -0.029696558433798575 -0.030385926103878174 -0.011748025122700043 0.1770792752504349 -0.13205270379588374 -0.023756323382258412 -0.021404857747256752 -0.043355473501900159 0.15509418398141864 -0.059520260615228228 -0.14485340562923635 0.05088296905159951 -0.03225447782018865 -0.043395428004186269 -0.02415833622217178 0.12517306953668597 0.0096226520836353319 -0.032568025159773771 0.013150563463568689 0.068246211856603636 -0.0089214215986430628 -0.082758270204067216 -0.046616708859801285 0.084386147558689131
decision_type=2 2 2 2 2 2 2 2 2 2 2 2 2 2 2 2 2 2 2 2 2 2 2 2 2 2 2 2 2 2
left_child=4 -2 3 6 12 -6 7 9 11 -3 -11 -4 -1 -9 21 16 17 -14 19 20 25 24 -5 -23 26 -19 -13 -28 -24 -26
right_child=1 2 8 22 5 -7 -8 13 -10 10 -12 14 15 -15 -16 -17 -18 18 -20 -21 -22 23 28 -25 29 -27 27 -29 -30 -31
leaf_value=0.050374208531436517 0.070509386274840172 0.065528847169451759 0.087680914917094829 -0.059424810500336017 -0.03279427324287159 0.071992977750167317 0.085967952057271979 -0.019548350352601357 0.048413410151578233 0.040858506653560507 -0.029012058139742128 -0.057424562769224474 0.076228886224866454 -0.061901932906886462 -0.020225083454470303 0.061656066160306437 0.068050426789117602 0.072889198997495103 0.068725924831722032 0.070592558485676041 0.074402906795461229 -0.05889672260603819 -0.055384524635288306 -0.05633681080869464 -0.054921804115886756 0.072234910473182048 -0.056318910727790696 -0.055216499501718967 -0.056546787380248126 -0.055779186010436091
leaf_weight=41.358068205416203 35.516801685094833 17.711735025048256 1.1376775950193394 9.084564074873926 17.771241016685963 22.747674286365509 14.340568758547304 6.8559613227844265 4.6680832281708708 16.149877093732357 15.058194056153299 4.8075253367424038 47.28903591632843 11.018274351954458 4.9285115599632254 42.073621153831482 64.850410759449005 38.696989119052887 39.122760072350502 42.110099866986275 39.540849685668945 6.1797160282731056 7.6669395342469215 6.9069981798529607 327.17563745379448 675.13864433765411 5.1923563852906254 18.701856039464474 4.9394289329648 4.536923184990882
leaf_count=89 48 45 5 73 79 31 19 45 25 42 72 46 61 84 50 63 90 51 54 57 51 52 88 71 4011 899 53 220 49 51
internal_value=0.0355577 -0.0330849 -0.0406391 0.00541293 0.0690603 0.0260342 0.02219 0.00849694 -0.0529631 0.0282834 0.00714529 -0.0542099 0.0707526 -0.0456565 -0.0546365 0.0716049 0.072047 0.0723409 0.0721206 0.0722876 0.0723823 -0.0550905 -0.0573413 -0.0575456 -0.0550014 0.0722704 -0.0557858 -0.0554561 -0.0558399 -0.0549335
internal_weight=1593.28 522.578 487.061 102.826 1070.7 40.5189 81.1346 66.794 384.235 48.9198 31.2081 379.567 1030.18 17.8742 378.43 988.822 946.749 881.898 834.609 795.487 753.376 373.501 21.6909 13.0867 360.414 713.836 28.7017 23.8942 12.6064 331.713
internal_count=6674 5149 5101 517 1525 110 307 288 4584 159 114 4559 1415 129 4554 1326 1263 1173 1112 1058 1001 4504 210 123 4381 950 319 273 137 4062
is_linear=0
shrinkage=0.05


Tree=19
num_leaves=31
num_cat=0
split_feature=223 45 148 196 5 26 196 20 47 99 17 101 5 191 174 24 149 3 11 194 217 1 121 65 8 100 28 196 224 79
split_gain=1361.33 142.947 72.4135 67.5041 28.8602 25.4466 21.0653 19.5986 14.2306 11.5213 10.3394 9.83728 4.31728 3.41925 2.40498 1.96339 0.624342 0.490954 0.344714 0.289463 0.0285555 0.0249845 0.0225718 0.0092049 0.00768416 0.00538809 0.00313344 0.00197127 0.00147772 0.000761888
threshold=0.0096226520836353319 1.5000000000000002 0.12517306953668597 0.042112624272704131 -0.077213899835661834 -0.011701026472674974 0.11829747259616853 -0.039157206473123186 0.026939552277326587 -0.10373205691576003 -0.068366466065258952 0.047552188858389861 -0.058206963274916534 -0.056221522390842431 0.10554744675755502 -0.059520260615228228 -0.0073828306049108497 -0.14485340562923635 -0.046865002526561401 -0.0086459754966199381 0.009730917867273094 0.236577456387185 -0.025581927038729187 0.028134375810623172 -0.038679172071180858 0.053084887564182288 -0.012398878603865222 -0.023494074121117588 0.052534971386194236 -0.072571281343698488
decision_type=2 2 2 2 2 2 2 2 2 2 2 2 2 2 2 2 2 2 2 2 2 2 2 2 2 2 2 2 2 2
left_child=3 -2 9 10 11 6 -4 -6 -8 -3 15 -5 18 -11 20 16 -1 19 -10 21 23 22 27 -15 -20 26 29 -18 -28 -22
right_child=1 2 5 4 7 -7 8 -9 12 13 -12 -13 -14 14 -16 -17 17 -19 24 -21 25 -23 -24 -25 -26 -27 28 -29 -30 -31
leaf_value=0.063279356668001982 0.068382130130561047 0.036601537654545262 0.038876358888638385 -0.058592259460613 0.073219504416306327 0.079772585568552726 0.0097659456768831102 0.0060947726022018422 -0.070906556538814988 0.0041471823176431359 0.046080239103690981 0.0036825659152261076 -0.014173058050453827 -0.058821217673494901 -0.018941044322669565 0.059711028876811949 0.070667729157069356 0.066259208962049995 -0.058505411498988538 0.074450902335774324 -0.055270990828274129 0.069418288935367528 0.071941075632119308 -0.055995024536307794 -0.056045484555535208 -0.056512555173887029 -0.056101986774006164 0.071010569138026267 -0.055067788735992509 -0.054660341722957251
leaf_weight=29.914957888424397 30.135293245315552 3.5488100945949546 16.472568057477474 11.535637363791468 23.723636642098427 9.353759400546549 15.737567365169523 20.076937936246395 6.7472316399216661 2.5167039260268202 47.876291744410992 14.083680257201193 6.2757201343774822 5.1477654799818975 4.7357724606990805 45.202176816761494 656.42848831415176 60.106813549995422 5.2696046456694603 54.794462263584137 5.1916209459304801 36.753912329673767 37.983082711696625 6.5430875793099403 7.985264852643013 4.1716193258762351 4.9281180351972607 44.788575053215027 11.547253489494322 316.9835095256567
leaf_count=45 42 22 55 79 38 22 66 85 39 20 98 65 43 46 47 72 900 86 46 72 61 51 51 71 86 47 53 61 140 4065
internal_value=0.0348167 -0.0369147 -0.0442404 0.0654948 0.0177955 0.00319938 -0.00904668 0.0424514 -0.0278354 -0.0530503 0.0687608 -0.024358 -0.0503545 -0.0539298 -0.0543366 0.0698849 0.0703844 0.070623 -0.0617066 0.0709387 -0.0548094 0.0706907 0.0707539 -0.0572395 -0.0570235 -0.0547266 -0.0547046 0.0706896 -0.0553771 -0.0546702
internal_weight=1546.56 463.291 433.156 1083.27 69.4199 67.8417 58.488 43.8006 42.0154 365.314 1013.85 25.6193 26.2778 361.765 359.249 965.972 920.77 890.855 20.0021 830.749 354.513 775.954 739.2 11.6909 13.2549 342.822 338.651 701.217 16.4754 322.175
internal_count=6674 4971 4929 1703 267 357 335 123 280 4572 1436 144 214 4550 4530 1338 1266 1221 171 1135 4483 1063 1012 117 132 4366 4319 961 193 4126
is_linear=0
shrinkage=0.05


Tree=20
num_leaves=31
num_cat=0
split_feature=89 45 208 2 21 5 5 9 157 18 114 170 122 194 50 150 103 66 208 148 223 24 16 223 148 28 122 183 147 61
split_gain=1265.92 143.669 104.698 52.4297 29.0599 40.0248 22.6747 33.4476 13.6802 9.36081 9.1917 7.60193 2.49269 2.06521 1.57585 0.149428 0.184392 0.0725592 0.0664709 0.0349911 0.0304944 0.0194786 0.0217644 0.011311 0.0054264 0.00537148 0.00337373 0.00196335 0.00152979 0.000971838
threshold=-0.0099633112549781782 1.5000000000000002 0.065013557672500624 0.90507907965304202 -0.034381969455223704 -0.067710431555289177 -0.029696558433798575 -0.032950802310721332 0.11081825941801073 -0.063383031865997697 0.041937831789255149 -0.021404857747256752 0.028202879242599014 -0.007357813883572816 0.14699570834636691 0.088932987302541747 0.055183988064527519 0.038211286067962653 0.0026583541184663777 0.12276302278041841 0.0096226520836353319 -0.059521147043474824 0.0055194514561322447 0.011221397668123247 0.12824137508869174 -0.012398882046460521 0.052579240873456008 -0.00410381588153541 0.068731945008039488 -0.03457189537584781
decision_type=2 2 2 2 2 2 2 2 2 2 2 2 2 2 2 2 2 2 2 2 2 2 2 2 2 2 2 2 2 2
left_child=4 -2 14 6 11 -6 7 8 -4 10 -9 -1 20 15 19 16 -13 -11 -18 23 -5 22 26 -3 27 29 -20 -22 -27 -25
right_child=1 2 3 12 5 -7 -8 9 -10 17 -12 13 -14 -15 -16 -17 18 -19 21 -21 24 -23 -24 25 -26 28 -28 -29 -30 -31
leaf_value=0.04641167196526836 0.067456328955027595 -0.056758184242418998 0.068610947932405908 -0.059652519688523059 -0.032442749728778066 0.068781783497351173 0.0740288106329519 0.032080293988627821 0.010149686325275818 -0.064273099492036967 -0.042629755580105795 0.072686780898693071 -0.016911989845790402 0.059790565965019228 -0.024024057596450255 0.0669286101442748 0.067062575958309431 -0.057059637754508112 0.069275066970150276 -0.059163532302792005 -0.055951443182360297 0.070385035841427718 0.068047594486715254 -0.05512690727782104 -0.05738652745882572 -0.056249509308376827 0.069756950999092585 -0.054928131088800514 -0.055017906235394223 -0.054414557576853297
leaf_weight=40.46463879942894 33.677959591150284 5.4611290618777266 19.510215573012829 6.8709260001778629 17.538242667913437 22.034958869218826 16.296119250357151 8.2240398824214989 20.543711125850677 7.4945182055234891 8.2438670694828016 39.820431649684906 4.5140223875641814 62.795130893588066 4.2803315594792357 67.993845596909523 34.820849075913429 6.5180908963084221 614.40126603841782 4.0765343979001036 10.408136069774633 39.055003046989441 36.417027339339256 4.8649633303284636 4.7134699150919905 4.7550076991319639 38.603770852088928 8.5277198776602727 5.3674015998840332 302.36272571235895
leaf_count=89 48 60 39 54 79 31 37 42 67 51 62 54 47 96 41 98 50 65 868 39 112 54 52 60 46 50 54 106 66 4057
internal_value=0.0341056 -0.0321777 -0.0395844 3.9617e-05 0.0659228 0.0239206 0.0208716 0.00859022 0.0386261 -0.0308794 -0.00531971 0.0676287 -0.0515912 0.068548 -0.0541655 0.0691792 0.0693698 -0.0609177 0.0691967 -0.0545601 -0.0567204 0.0692987 0.0692372 -0.054502 -0.0558685 -0.0544632 0.0693036 -0.0554906 -0.0555965 -0.0544258
internal_weight=1500.66 486.711 453.033 121.865 1013.95 39.5732 86.8306 70.5344 40.0539 30.4805 16.4679 974.372 35.0343 933.907 331.168 871.112 803.118 14.0126 763.298 326.888 30.5203 728.477 689.422 322.811 23.6493 317.35 653.005 18.9359 10.1224 307.228
internal_count=6674 5149 5101 728 1525 110 363 326 106 220 104 1415 365 1326 4373 1230 1132 116 1078 4332 318 1028 974 4293 264 4233 922 218 116 4117
is_linear=0
shrinkage=0.05


Tree=21
num_leaves=31
num_cat=0
split_feature=227 182 128 45 45 2 112 5 15 131 86 114 160 154 155 87 176 223 74 89 193 15 174 92 223 148 210 147 3 109
split_gain=1178.97 87.7768 58.9376 69.7071 58.3545 47.9474 33.08 26.4238 27.8731 12.397 11.3184 9.3874 7.24573 2.4777 1.59123 1.15197 0.74182 0.399082 0.169977 0.0862321 0.0849201 0.0523246 0.0305758 0.0242263 0.0182907 0.00696333 0.00654734 0.00323636 0.00296651 0.00167673
threshold=0.019798293709754947 0.0051059680990874776 -0.029071253724396225 3.5000000000000004 1.5000000000000002 0.57252597997368049 -0.10060476511716841 -0.055039140514792313 -0.030441829368096245 0.020888518542051319 -0.067781746387481676 0.029896817170083526 0.050880825147032745 0.052380694076418884 -0.012970453128218649 0.11268765851855279 0.00110078213037923 -0.0027271879371255632 0.022142144851386551 -0.011093510314822195 -0.0071575483307242385 -0.03037306181781169 -0.022390730679035183 -0.029389768838882443 0.0096226520836353319 0.12877821922302249 0.045531038194894798 0.060182707384228713 -0.14485340562923635 0.074813257902860655
decision_type=2 2 2 2 2 2 2 2 2 2 2 2 2 2 2 2 2 2 2 2 2 2 2 2 2 2 2 2 2 2
left_child=2 5 3 -1 -3 7 -5 8 10 24 -2 13 16 -4 18 -8 21 -17 20 -19 -15 -10 23 28 -7 -26 -6 -28 29 -22
right_child=1 4 11 6 26 9 15 -9 12 -11 -12 -13 -14 14 -16 17 -18 19 -20 -21 22 -23 -24 -25 25 -27 27 -29 -30 -31
leaf_value=0.073757397838743077 0.058622624193809106 0.064408215464944074 0.054304681198861941 0.051657596285300013 -0.054186877029658943 -0.058953267500311379 -0.037616019491215728 0.063808617747926413 -0.063884616555616669 0.017429203153459139 0.0025493402284589867 0.042812610757350031 0.002907585621806878 0.065482984623508822 0.057756056599676336 -0.071833346472198953 -0.037844628850822994 -0.063130641057435433 0.071307983663989341 -0.054689455365719133 0.067977989249753248 -0.057519933690295566 0.069143084892901968 0.066693380145700476 -0.055216975452712161 -0.056955615881505987 -0.056416899817753621 -0.054767435862387949 0.068434810560758466 0.068320557892389305
leaf_weight=30.051461040973663 18.410862199962139 10.74091164767742 36.280138969421387 9.411889046430586 281.5696382150054 4.8327448219060889 5.8941249623894718 24.994916304945946 6.948173694312576 6.8264807462692252 17.60466381162405 41.572237581014633 7.8700498417019835 33.651158571243286 38.913639307022095 7.5459235757589367 4.7563021108508101 4.5355104431509998 39.337711751461029 9.0877939164638466 588.28149062395096 6.0330578461289424 58.978172183036804 35.942877396941185 23.336045369505886 7.6456731036305419 4.4730863869190207 8.8722108006477338 41.600665807723999 38.028884708881378
leaf_count=40 38 16 67 27 3952 40 49 53 50 54 71 78 45 50 61 39 48 32 55 119 858 58 84 53 281 78 49 114 60 55
internal_value=0.0334584 -0.0354615 0.0628705 0.0173707 -0.0500689 -0.000919794 -0.0290856 0.0204466 0.00285856 -0.0443221 0.0312136 0.0660481 -0.0370211 0.0671084 0.0676394 -0.0571658 -0.0547372 -0.062609 0.0680996 -0.0574997 0.0679411 -0.0609266 0.0680495 0.0679579 -0.0560923 -0.055646 -0.0542382 -0.0553203 0.0680259 0.0679988
internal_weight=1454.03 434.915 1019.11 66.5267 305.656 129.259 36.4752 86.618 61.6231 42.6409 36.0155 952.587 25.6076 911.015 874.735 27.0634 17.7375 21.1692 835.821 13.6233 796.483 12.9812 762.832 703.854 35.8145 30.9817 294.915 13.3453 667.911 626.31
internal_count=6674 4947 1727 306 4131 816 266 363 310 453 109 1421 201 1343 1276 239 156 190 1215 151 1160 108 1110 1026 399 359 4115 163 973 913
is_linear=0
shrinkage=0.05


Tree=22
num_leaves=31
num_cat=0
split_feature=89 45 208 2 21 5 5 9 196 18 51 155 131 230 122 71 103 66 97 223 18 205 213 212 156 223 148 236 3 122
split_gain=1099.82 127.334 97.9529 47.7475 27.3269 35.8285 21.0327 28.6387 11.6304 8.826 8.80482 7.56203 2.69431 1.67456 1.16288 0.223375 0.201983 0.0748511 0.0305074 0.026643 0.0163013 0.0151964 0.00598007 0.00565767 0.00392896 0.00392133 0.00343702 0.00155594 0.00100425 0.000574035
threshold=-0.0099633112549781782 1.5000000000000002 0.058899486437439925 0.90507907965304202 -0.034381969455223704 -0.067710431555289177 -0.029696558433798575 -0.032950802310721332 0.11910080164670946 -0.063383031865997697 0.06590550392866136 0.020304254256188873 0.016509937122464183 -0.035620158538222306 0.060076303780078895 0.1484525948762894 0.055183988064527519 0.038211286067962653 0.0306056272238493 0.0096226520836353319 -0.063432139007171401 0.019015028141438964 0.0087525323033332842 0.013115493580698969 -0.064972437918186174 -0.050925783812999718 0.12877821922302249 0.046210616827011115 -0.14485340562923635 0.047087104991078384
decision_type=2 2 2 2 2 2 2 2 2 2 2 2 2 2 2 2 2 2 2 2 2 2 2 2 2 2 2 2 2 2
left_child=4 -2 21 6 11 -6 7 8 -4 10 -9 13 19 -1 15 16 -15 -11 20 -5 25 23 24 -3 -23 28 27 -21 29 -18
right_child=1 2 3 12 5 -7 -8 9 -10 17 -12 -13 -14 14 -16 -17 18 -19 -20 26 -22 22 -24 -25 -26 -27 -28 -29 -30 -31
leaf_value=0.053906021364623948 0.064972714851854824 -0.054942695485742425 0.058235902344759977 -0.058791641328087875 -0.031966410065082489 0.06540664261965605 0.06801483755361358 -0.039731017097255093 0.0045588339460466308 -0.063751492228604198 0.033725870211570468 0.045231433437356236 -0.012999468184844848 0.070520117925381473 0.057873131416484792 0.063002983078298311 0.066791691526265101 -0.0563359563511725 0.065381811287905309 -0.055404061107267068 0.06797939992865519 -0.054431961240227159 -0.053969726722063238 -0.057313189903123209 -0.056384610962978511 0.067268799098865087 -0.056353089686887327 -0.054474103287428292 0.06708416464851745 0.0669659030238208
leaf_weight=27.477046176791191 31.906574308872223 5.7774785384535772 22.180547080934048 6.8607357293367413 17.091023087501526 21.121876984834671 17.272775128483772 8.8390661850571686 18.515608318150043 7.1886588931083661 7.5757244527339926 45.904614582657814 4.1292664483189574 39.358438313007355 37.759959116578102 36.028868183493614 521.39521718025208 6.4617786109447479 34.05620764195919 8.5937320664525085 34.171525418758392 6.9436342716217041 277.14220338314772 4.4603581950068474 4.0956542342901212 53.765208959579468 5.4216472804546347 9.4372064247727376 34.787651717662811 52.001140832901001
leaf_count=46 48 74 46 58 79 31 42 75 64 51 33 99 45 56 60 56 786 70 52 100 50 95 4070 46 46 80 59 127 52 78
internal_value=0.0328507 -0.0313294 -0.0386297 -0.000978606 0.0632836 0.0218558 0.0185486 0.00647399 0.0338143 -0.0305338 -0.00582933 0.0650105 -0.0508896 0.0660531 0.0664489 0.0668509 0.0670311 -0.0602412 0.066843 -0.056051 0.0669145 -0.0540824 -0.0540152 -0.0559755 -0.0551564 0.0668595 -0.0552492 -0.0549173 0.0668233 0.0668075
internal_weight=1407.72 452.803 420.896 122.477 954.919 38.2129 88.0342 70.7614 40.6962 30.0652 16.4148 916.706 34.4426 870.801 843.324 805.564 769.535 13.6504 730.177 30.3133 696.121 298.419 288.181 10.2378 11.0393 661.949 23.4526 18.0309 608.184 573.396
internal_count=6674 5149 5101 770 1525 110 381 339 110 229 108 1415 389 1316 1270 1210 1154 121 1098 344 1046 4331 4211 120 141 996 286 227 916 864
is_linear=0
shrinkage=0.05


Tree=23
num_leaves=31
num_cat=0
split_feature=227 182 128 45 45 2 112 5 15 131 86 114 160 154 155 237 176 223 74 193 89 15 134 193 223 210 148 121 147 236
split_gain=1026.77 81.7432 53.3502 62.6548 52.0577 41.5641 29.7817 22.6104 21.2667 11.6619 11.2229 9.62328 7.19156 2.62692 1.75656 1.19625 0.688573 0.337057 0.151237 0.0911003 0.0694166 0.039304 0.0251965 0.0240264 0.012896 0.00555205 0.00551484 0.00321885 0.00238933 0.0011629
threshold=0.019798293709754947 0.0051059680990874776 -0.029071253724396225 3.5000000000000004 1.5000000000000002 0.57252597997368049 -0.10060476511716841 -0.058206963274916534 -0.030441829368096245 0.020888518542051319 -0.069717776030302034 0.029896817170083526 0.050880825147032745 0.052380694076418884 -0.012970453128218649 -0.062438417226076119 0.0005227909132372589 -0.0027271879371255632 0.022142144851386551 -0.0071575483307242385 -0.011093510314822195 -0.03037306181781169 0.030659041367471222 0.0451236478984356 0.0096226520836353319 0.045531038194894798 0.12877821922302249 -0.040563819929957383 0.060182707384228713 0.046210616827011115
decision_type=2 2 2 2 2 2 2 2 2 2 2 2 2 2 2 2 2 2 2 2 2 2 2 2 2 2 2 2 2 2
left_child=2 5 3 -1 -3 7 -5 8 10 24 -2 13 16 -4 18 -8 21 -17 19 -15 -19 -10 -21 27 -7 -6 29 -24 -27 -26
right_child=1 4 11 6 25 9 15 -9 12 -11 -12 -13 -14 14 -16 17 -18 20 -20 22 -22 -23 23 -25 26 28 -28 -29 -30 -31
leaf_value=0.071119895134613406 0.055772727924241254 0.061804691542769311 0.051295997599164395 0.047832620374609426 -0.053757988272545923 -0.057995774639317904 -0.035243246067037569 0.057598779462181164 -0.062649580067429059 0.016687918550076866 -0.00079853454488005996 0.039689319183784731 0.0056791885854393723 0.063025396670158343 0.054657134517188725 -0.07062922825406158 -0.037010864164686623 -0.061752624424060945 0.06892478232393652 0.066983677925103235 -0.054300235155583722 -0.056848280930472839 0.065731715878023109 0.064383418580957377 -0.055113852985602334 -0.055823632126452374 -0.056315099176857078 0.066139904885209808 -0.054349699177032987 -0.054371745280421248
leaf_weight=28.596709966659546 16.865719124674797 10.10230505466461 34.884833909571171 9.3353481292724592 256.76892960816622 4.4524995088577262 5.2788535580039015 26.050720140337944 6.2569687888026273 6.7436853870749465 18.257476054131985 40.160056568682194 7.4838055074214926 31.569356963038445 36.980148121714592 7.222386687994006 4.5406135842204085 5.1013049259781864 37.097894787788391 40.352330982685089 8.0645621791481954 5.4738080464303511 587.75959837436676 33.081762045621872 9.5102249905467087 4.1362538188695899 7.0438040122389785 52.620649337768555 8.2012543082237226 11.865021720528601
leaf_count=40 33 16 67 27 3952 40 47 58 48 54 75 78 44 50 61 39 48 39 55 61 114 57 916 52 116 49 78 81 114 165
internal_value=0.0322799 -0.034599 0.0604632 0.0162148 -0.0496247 -0.000913676 -0.0286422 0.0188137 0.00165332 -0.0432063 0.0263663 0.0636092 -0.034886 0.0647336 0.0653057 -0.0564568 -0.0535434 -0.0619493 0.0658089 0.0656538 -0.0571878 -0.0599426 0.0657701 0.0656974 -0.0554938 -0.0538078 -0.0551018 0.0657653 -0.0548438 -0.0547019
internal_weight=1361.86 403.753 958.106 63.5992 279.209 124.544 35.0025 84.9291 58.8784 39.6152 35.1232 894.507 23.7552 854.347 819.462 25.6671 16.2714 20.3883 782.482 745.384 13.1659 11.7308 713.814 673.462 32.8716 269.106 28.4191 640.38 12.3375 21.3752
internal_count=6674 4947 1727 306 4131 816 266 363 305 453 108 1421 197 1343 1276 239 153 192 1215 1160 153 105 1110 1049 399 4115 359 997 163 281
is_linear=0
shrinkage=0.05


Tree=24
num_leaves=31
num_cat=0
split_feature=89 45 208 2 21 5 26 45 1 95 166 169 3 72 75 15 150 228 81 223 67 134 205 49 212 137 148 45 219 149
split_gain=959.714 113.168 91.6213 41.9039 25.8006 32.1691 18.9446 20.0606 14.1442 14.4207 8.56436 2.8626 1.78484 3.2079 0.494925 0.255992 0.249056 0.171435 0.0308069 0.0238971 0.0223468 0.0217062 0.0140286 0.00576708 0.00452966 0.00317678 0.00271178 0.00213045 0.00112855 0.000651693
threshold=-0.0099633112549781782 1.5000000000000002 0.058899486437439925 0.90507907965304202 -0.034381969455223704 -0.067710431555289177 -0.011528845943798887 193.50000000000003 -0.31528791758733354 -0.091250173747539506 -0.034455718472599976 0.0015962928882800045 -0.14485340562923635 0.21111811697483066 1.0000000180025095e-35 -0.030410744008506133 0.089364595711231246 0.05088296905159951 0.052465718239545829 0.0096226520836353319 0.022138167172670368 0.026800547726452354 0.015184433199465277 0.080143354833126082 0.011317439377307894 0.051530862227082259 0.12877821922302249 13.500000000000002 -0.0028164999093860383 0.024500953964889053
decision_type=2 2 2 2 2 2 2 2 2 2 2 2 2 2 2 2 2 2 2 2 2 2 2 2 2 2 2 2 2 2
left_child=4 -2 22 6 10 -6 7 8 -4 -10 -1 -5 14 -14 -12 -11 17 -16 21 -13 25 -19 24 27 -3 -20 28 -24 -21 -29
right_child=1 2 3 11 5 -7 -8 -9 9 15 12 19 13 -15 16 -17 -18 18 20 26 -22 -23 23 -25 -26 -27 -28 29 -30 -31
leaf_value=0.038246750768698295 0.062834568434403631 -0.054507451010657119 0.021661189739802567 -0.0090713186121407687 -0.031479357928522807 0.062450511275980704 0.066846580140792297 0.050241659368506102 0.0043316872963330968 -0.071384833147579083 0.058639209346010905 -0.058188562057678708 0.042724853659987017 0.065106851147395672 0.068360737564235205 -0.058652815735785492 0.061244339083736589 0.06666440519224219 0.064722971420114156 -0.054826720506883711 0.063426663327860691 0.064970117396609711 -0.053561457119461864 -0.055763214081043191 -0.056852087827625644 0.065222393306498816 -0.055700587795252034 -0.053850205849786018 -0.054004473913500828 -0.054629133847782299
leaf_weight=34.206990979611874 30.138327449560165 4.013290096074341 21.060511961579323 3.7704603672027615 16.628669902682304 20.174167722463608 15.647779285907744 18.858475860208273 14.748652532696722 6.7910983115434673 34.778741613030434 6.2621894627809551 27.196839109063148 38.916483879089355 35.75214695930481 9.4299833253026026 47.46434873342514 34.919781982898712 496.73687016963959 7.6846321634948351 33.6714106798172 41.2161825299263 250.27558691427112 3.0922664478421202 4.2322929129004478 34.022209465503693 5.0582511797547332 4.8967693410813791 9.1323035731911606 5.9458189681172371
leaf_count=82 48 56 80 40 79 31 34 56 79 40 57 56 52 62 54 92 78 53 802 98 55 66 4034 41 46 54 60 75 135 79
internal_value=0.0317383 -0.0305218 -0.0377196 -0.00100604 0.0610053 0.0200101 0.0170528 0.00606143 -0.00995179 -0.0314497 0.0627619 -0.0499829 0.0637788 0.0558996 0.0644655 -0.0639832 0.0647455 0.0649912 0.0648031 -0.0554651 0.0646757 0.0657472 -0.05368 -0.0536166 -0.0557109 0.064755 -0.0546855 -0.0535912 -0.0543802 -0.0542774
internal_weight=1316.72 421.039 390.9 118.444 895.685 36.8028 86.5365 70.8887 52.0302 30.9697 858.882 31.9078 824.675 66.1133 758.562 16.2211 723.783 676.319 640.566 28.1374 564.43 76.136 272.456 264.21 8.24558 530.759 21.8752 261.118 16.8169 10.8426
internal_count=6674 5149 5101 770 1525 110 381 347 291 211 1415 389 1333 114 1219 132 1162 1084 1030 349 911 119 4331 4229 102 856 293 4188 233 154
is_linear=0
shrinkage=0.05


Tree=25
